digraph Tree {
node [shape=box, style="filled, rounded", color="black", fontname="helvetica"] ;
edge [fontname="helvetica"] ;
0 [label="REST_AVG_CUR <= -0.31\ngini = 0.5\nsamples = 43422\nvalue = [21711, 21711]\nclass = 0", fillcolor="#ffffff"] ;
1 [label="REST_AVG_PAYM <= 0.06\ngini = 0.45\nsamples = 20610\nvalue = [6894, 13716]\nclass = 1", fillcolor="#9dcef2"] ;
0 -> 1 [labeldistance=2.5, labelangle=45, headlabel="True"] ;
2 [label="REST_AVG_CUR <= -0.33\ngini = 0.42\nsamples = 16926\nvalue = [5145, 11781]\nclass = 1", fillcolor="#8fc8f0"] ;
1 -> 2 ;
3 [label="REST_AVG_CUR <= -0.34\ngini = 0.35\nsamples = 10079\nvalue = [2306, 7773]\nclass = 1", fillcolor="#74baed"] ;
2 -> 3 ;
4 [label="REST_AVG_PAYM <= -0.12\ngini = 0.34\nsamples = 8101\nvalue = [1731, 6370]\nclass = 1", fillcolor="#6fb8ec"] ;
3 -> 4 ;
5 [label="gini = 0.3\nsamples = 5823\nvalue = [1091, 4732]\nclass = 1", fillcolor="#67b4eb"] ;
4 -> 5 ;
6 [label="gini = 0.4\nsamples = 2278\nvalue = [640, 1638]\nclass = 1", fillcolor="#86c3ef"] ;
4 -> 6 ;
7 [label="gini = 0.41\nsamples = 1978\nvalue = [575, 1403]\nclass = 1", fillcolor="#8ac5f0"] ;
3 -> 7 ;
8 [label="REST_DYNAMIC_CUR_1M <= -0.47\ngini = 0.49\nsamples = 6847\nvalue = [2839.0, 4008.0]\nclass = 1", fillcolor="#c5e2f7"] ;
2 -> 8 ;
9 [label="gini = 0.4\nsamples = 2114\nvalue = [591, 1523]\nclass = 1", fillcolor="#86c3ef"] ;
8 -> 9 ;
10 [label="REST_AVG_CUR <= -0.32\ngini = 0.5\nsamples = 4733\nvalue = [2248, 2485]\nclass = 1", fillcolor="#ecf6fd"] ;
8 -> 10 ;
11 [label="gini = 0.49\nsamples = 2266\nvalue = [954, 1312]\nclass = 1", fillcolor="#c9e4f8"] ;
10 -> 11 ;
12 [label="gini = 0.5\nsamples = 2467\nvalue = [1294, 1173]\nclass = 0", fillcolor="#fdf3ec"] ;
10 -> 12 ;
13 [label="REST_DYNAMIC_PAYM_3M <= 1.83\ngini = 0.5\nsamples = 3684\nvalue = [1749, 1935]\nclass = 1", fillcolor="#ecf6fd"] ;
1 -> 13 ;
14 [label="gini = 0.47\nsamples = 1812\nvalue = [678, 1134]\nclass = 1", fillcolor="#afd8f5"] ;
13 -> 14 ;
15 [label="gini = 0.49\nsamples = 1872\nvalue = [1071, 801]\nclass = 0", fillcolor="#f8dfcd"] ;
13 -> 15 ;
16 [label="REST_DYNAMIC_CUR_1M <= -0.63\ngini = 0.46\nsamples = 22812\nvalue = [14817.0, 7995.0]\nclass = 0", fillcolor="#f3c5a4"] ;
0 -> 16 [labeldistance=2.5, labelangle=-45, headlabel="False"] ;
17 [label="REST_DYNAMIC_CUR_1M <= -0.76\ngini = 0.48\nsamples = 6186\nvalue = [2442, 3744]\nclass = 1", fillcolor="#baddf6"] ;
16 -> 17 ;
18 [label="REST_AVG_CUR <= -0.18\ngini = 0.44\nsamples = 3621\nvalue = [1168, 2453]\nclass = 1", fillcolor="#97ccf1"] ;
17 -> 18 ;
19 [label="gini = 0.38\nsamples = 1810\nvalue = [470, 1340]\nclass = 1", fillcolor="#7ebfee"] ;
18 -> 19 ;
20 [label="gini = 0.47\nsamples = 1811\nvalue = [698, 1113]\nclass = 1", fillcolor="#b5daf5"] ;
18 -> 20 ;
21 [label="gini = 0.5\nsamples = 2565\nvalue = [1274, 1291]\nclass = 1", fillcolor="#fcfeff"] ;
17 -> 21 ;
22 [label="REST_AVG_CUR <= 0.23\ngini = 0.38\nsamples = 16626\nvalue = [12375, 4251]\nclass = 0", fillcolor="#eeac7d"] ;
16 -> 22 ;
23 [label="CLNT_SETUP_TENOR <= -0.93\ngini = 0.43\nsamples = 13600\nvalue = [9349, 4251]\nclass = 0", fillcolor="#f1ba93"] ;
22 -> 23 ;
24 [label="PACK_K01 <= 0.69\ngini = 0.5\nsamples = 4224\nvalue = [2298, 1926]\nclass = 0", fillcolor="#fbebdf"] ;
23 -> 24 ;
25 [label="gini = 0.46\nsamples = 2257\nvalue = [1430, 827]\nclass = 0", fillcolor="#f4caac"] ;
24 -> 25 ;
26 [label="gini = 0.49\nsamples = 1967\nvalue = [868, 1099]\nclass = 1", fillcolor="#d5eafa"] ;
24 -> 26 ;
27 [label="REST_AVG_CUR <= -0.24\ngini = 0.37\nsamples = 9376\nvalue = [7051, 2325]\nclass = 0", fillcolor="#eeab7a"] ;
23 -> 27 ;
28 [label="gini = 0.43\nsamples = 4143\nvalue = [2828, 1315]\nclass = 0", fillcolor="#f1bc95"] ;
27 -> 28 ;
29 [label="gini = 0.31\nsamples = 5233\nvalue = [4223, 1010]\nclass = 0", fillcolor="#eb9f68"] ;
27 -> 29 ;
30 [label="gini = 0.0\nsamples = 3026\nvalue = [3026, 0]\nclass = 0", fillcolor="#e58139"] ;
22 -> 30 ;
}