digraph Tree {
node [shape=box, style="filled, rounded", color="black", fontname="helvetica"] ;
edge [fontname="helvetica"] ;
0 [label="REST_AVG_CUR <= -0.31\ngini = 0.5\nsamples = 43422\nvalue = [21711, 21711]\nclass = 0", fillcolor="#ffffff"] ;
1 [label="REST_AVG_PAYM <= 0.87\ngini = 0.45\nsamples = 20668\nvalue = [6941, 13727]\nclass = 1", fillcolor="#9dcff2"] ;
0 -> 1 [labeldistance=2.5, labelangle=45, headlabel="True"] ;
2 [label="REST_AVG_CUR <= -0.33\ngini = 0.44\nsamples = 19455\nvalue = [6225, 13230]\nclass = 1", fillcolor="#96cbf1"] ;
1 -> 2 ;
3 [label="REST_AVG_PAYM <= -0.07\ngini = 0.39\nsamples = 12920\nvalue = [3475, 9445]\nclass = 1", fillcolor="#82c1ef"] ;
2 -> 3 ;
4 [label="REST_AVG_CUR <= -0.34\ngini = 0.35\nsamples = 9092\nvalue = [2040, 7052]\nclass = 1", fillcolor="#72b9ed"] ;
3 -> 4 ;
5 [label="REST_DYNAMIC_CC_1M <= 3.93\ngini = 0.3\nsamples = 5613\nvalue = [1041, 4572]\nclass = 1", fillcolor="#66b3eb"] ;
4 -> 5 ;
6 [label="REST_AVG_PAYM <= -0.13\ngini = 0.3\nsamples = 5532\nvalue = [1003, 4529]\nclass = 1", fillcolor="#65b3eb"] ;
5 -> 6 ;
7 [label="REST_DYNAMIC_IL_1M <= 6.2\ngini = 0.28\nsamples = 4373\nvalue = [730, 3643]\nclass = 1", fillcolor="#61b1ea"] ;
6 -> 7 ;
8 [label="REST_AVG_CUR <= -0.34\ngini = 0.27\nsamples = 4307\nvalue = [706, 3601]\nclass = 1", fillcolor="#60b0ea"] ;
7 -> 8 ;
9 [label="CR_PROD_CNT_PIL <= 1.5\ngini = 0.24\nsamples = 2317\nvalue = [328, 1989]\nclass = 1", fillcolor="#5aade9"] ;
8 -> 9 ;
10 [label="REST_AVG_PAYM <= -0.13\ngini = 0.23\nsamples = 2163\nvalue = [286, 1877]\nclass = 1", fillcolor="#57ace9"] ;
9 -> 10 ;
11 [label="REST_AVG_PAYM <= -0.13\ngini = 0.24\nsamples = 2035\nvalue = [280, 1755]\nclass = 1", fillcolor="#59ade9"] ;
10 -> 11 ;
12 [label="CNT_TRAN_ATM_TENDENCY3M <= 1.14\ngini = 0.23\nsamples = 2013\nvalue = [271, 1742]\nclass = 1", fillcolor="#58ace9"] ;
11 -> 12 ;
13 [label="REST_AVG_CUR <= -0.35\ngini = 0.22\nsamples = 1655\nvalue = [206, 1449]\nclass = 1", fillcolor="#55abe9"] ;
12 -> 13 ;
14 [label="REST_AVG_CUR <= -0.35\ngini = 0.22\nsamples = 1591\nvalue = [204, 1387]\nclass = 1", fillcolor="#56abe9"] ;
13 -> 14 ;
15 [label="CLNT_SETUP_TENOR <= -1.35\ngini = 0.22\nsamples = 1577\nvalue = [198, 1379]\nclass = 1", fillcolor="#55abe9"] ;
14 -> 15 ;
16 [label="CLNT_SETUP_TENOR <= -1.37\ngini = 0.09\nsamples = 103\nvalue = [5, 98]\nclass = 1", fillcolor="#43a2e6"] ;
15 -> 16 ;
17 [label="CLNT_SETUP_TENOR <= -1.37\ngini = 0.41\nsamples = 7\nvalue = [2, 5]\nclass = 1", fillcolor="#88c4ef"] ;
16 -> 17 ;
18 [label="gini = 0.0\nsamples = 4\nvalue = [0, 4]\nclass = 1", fillcolor="#399de5"] ;
17 -> 18 ;
19 [label="REST_AVG_CUR <= -0.35\ngini = 0.44\nsamples = 3\nvalue = [2, 1]\nclass = 0", fillcolor="#f2c09c"] ;
17 -> 19 ;
20 [label="gini = 0.0\nsamples = 2\nvalue = [2, 0]\nclass = 0", fillcolor="#e58139"] ;
19 -> 20 ;
21 [label="gini = 0.0\nsamples = 1\nvalue = [0, 1]\nclass = 1", fillcolor="#399de5"] ;
19 -> 21 ;
22 [label="CLNT_SETUP_TENOR <= -1.36\ngini = 0.06\nsamples = 96\nvalue = [3, 93]\nclass = 1", fillcolor="#3fa0e6"] ;
16 -> 22 ;
23 [label="REST_AVG_CUR <= -0.35\ngini = 0.12\nsamples = 48\nvalue = [3, 45]\nclass = 1", fillcolor="#46a4e7"] ;
22 -> 23 ;
24 [label="gini = 0.0\nsamples = 18\nvalue = [0, 18]\nclass = 1", fillcolor="#399de5"] ;
23 -> 24 ;
25 [label="REST_AVG_CUR <= -0.35\ngini = 0.18\nsamples = 30\nvalue = [3, 27]\nclass = 1", fillcolor="#4fa8e8"] ;
23 -> 25 ;
26 [label="gini = 0.0\nsamples = 1\nvalue = [1, 0]\nclass = 0", fillcolor="#e58139"] ;
25 -> 26 ;
27 [label="AGE <= -1.42\ngini = 0.13\nsamples = 29\nvalue = [2, 27]\nclass = 1", fillcolor="#48a4e7"] ;
25 -> 27 ;
28 [label="AGE <= -1.55\ngini = 0.44\nsamples = 3\nvalue = [1, 2]\nclass = 1", fillcolor="#9ccef2"] ;
27 -> 28 ;
29 [label="gini = 0.0\nsamples = 2\nvalue = [0, 2]\nclass = 1", fillcolor="#399de5"] ;
28 -> 29 ;
30 [label="gini = 0.0\nsamples = 1\nvalue = [1, 0]\nclass = 0", fillcolor="#e58139"] ;
28 -> 30 ;
31 [label="AGE <= 0.69\ngini = 0.07\nsamples = 26\nvalue = [1, 25]\nclass = 1", fillcolor="#41a1e6"] ;
27 -> 31 ;
32 [label="gini = 0.0\nsamples = 21\nvalue = [0, 21]\nclass = 1", fillcolor="#399de5"] ;
31 -> 32 ;
33 [label="AGE <= 1.27\ngini = 0.32\nsamples = 5\nvalue = [1, 4]\nclass = 1", fillcolor="#6ab6ec"] ;
31 -> 33 ;
34 [label="gini = 0.0\nsamples = 1\nvalue = [1, 0]\nclass = 0", fillcolor="#e58139"] ;
33 -> 34 ;
35 [label="gini = 0.0\nsamples = 4\nvalue = [0, 4]\nclass = 1", fillcolor="#399de5"] ;
33 -> 35 ;
36 [label="gini = 0.0\nsamples = 48\nvalue = [0, 48]\nclass = 1", fillcolor="#399de5"] ;
22 -> 36 ;
37 [label="CLNT_SETUP_TENOR <= -1.34\ngini = 0.23\nsamples = 1474\nvalue = [193.0, 1281.0]\nclass = 1", fillcolor="#57ace9"] ;
15 -> 37 ;
38 [label="REST_AVG_CUR <= -0.35\ngini = 0.46\nsamples = 14\nvalue = [5, 9]\nclass = 1", fillcolor="#a7d3f3"] ;
37 -> 38 ;
39 [label="AGE <= -0.4\ngini = 0.5\nsamples = 10\nvalue = [5, 5]\nclass = 0", fillcolor="#ffffff"] ;
38 -> 39 ;
40 [label="REST_AVG_CUR <= -0.35\ngini = 0.32\nsamples = 5\nvalue = [4, 1]\nclass = 0", fillcolor="#eca06a"] ;
39 -> 40 ;
41 [label="gini = 0.0\nsamples = 4\nvalue = [4, 0]\nclass = 0", fillcolor="#e58139"] ;
40 -> 41 ;
42 [label="gini = 0.0\nsamples = 1\nvalue = [0, 1]\nclass = 1", fillcolor="#399de5"] ;
40 -> 42 ;
43 [label="AGE <= 0.52\ngini = 0.32\nsamples = 5\nvalue = [1, 4]\nclass = 1", fillcolor="#6ab6ec"] ;
39 -> 43 ;
44 [label="gini = 0.0\nsamples = 3\nvalue = [0, 3]\nclass = 1", fillcolor="#399de5"] ;
43 -> 44 ;
45 [label="REST_AVG_CUR <= -0.35\ngini = 0.5\nsamples = 2\nvalue = [1, 1]\nclass = 0", fillcolor="#ffffff"] ;
43 -> 45 ;
46 [label="gini = 0.0\nsamples = 1\nvalue = [0, 1]\nclass = 1", fillcolor="#399de5"] ;
45 -> 46 ;
47 [label="gini = 0.0\nsamples = 1\nvalue = [1, 0]\nclass = 0", fillcolor="#e58139"] ;
45 -> 47 ;
48 [label="gini = 0.0\nsamples = 4\nvalue = [0, 4]\nclass = 1", fillcolor="#399de5"] ;
38 -> 48 ;
49 [label="CLNT_SETUP_TENOR <= 2.64\ngini = 0.22\nsamples = 1460\nvalue = [188, 1272]\nclass = 1", fillcolor="#56abe9"] ;
37 -> 49 ;
50 [label="CLNT_SETUP_TENOR <= -1.01\ngini = 0.22\nsamples = 1458\nvalue = [187, 1271]\nclass = 1", fillcolor="#56abe9"] ;
49 -> 50 ;
51 [label="CLNT_SETUP_TENOR <= -1.01\ngini = 0.26\nsamples = 362\nvalue = [55, 307]\nclass = 1", fillcolor="#5cafea"] ;
50 -> 51 ;
52 [label="CR_PROD_CNT_IL <= 0.91\ngini = 0.25\nsamples = 359\nvalue = [53, 306]\nclass = 1", fillcolor="#5baeea"] ;
51 -> 52 ;
53 [label="REST_DYNAMIC_PAYM_3M <= 4.12\ngini = 0.24\nsamples = 350\nvalue = [49.0, 301.0]\nclass = 1", fillcolor="#59ade9"] ;
52 -> 53 ;
54 [label="REST_AVG_CUR <= -0.35\ngini = 0.22\nsamples = 312\nvalue = [40, 272]\nclass = 1", fillcolor="#56abe9"] ;
53 -> 54 ;
55 [label="AGE <= -0.14\ngini = 0.06\nsamples = 65\nvalue = [2, 63]\nclass = 1", fillcolor="#3fa0e6"] ;
54 -> 55 ;
56 [label="gini = 0.0\nsamples = 43\nvalue = [0, 43]\nclass = 1", fillcolor="#399de5"] ;
55 -> 56 ;
57 [label="AGE <= -0.05\ngini = 0.17\nsamples = 22\nvalue = [2, 20]\nclass = 1", fillcolor="#4da7e8"] ;
55 -> 57 ;
58 [label="CLNT_SETUP_TENOR <= -1.31\ngini = 0.5\nsamples = 2\nvalue = [1, 1]\nclass = 0", fillcolor="#ffffff"] ;
57 -> 58 ;
59 [label="gini = 0.0\nsamples = 1\nvalue = [0, 1]\nclass = 1", fillcolor="#399de5"] ;
58 -> 59 ;
60 [label="gini = 0.0\nsamples = 1\nvalue = [1, 0]\nclass = 0", fillcolor="#e58139"] ;
58 -> 60 ;
61 [label="REST_AVG_CUR <= -0.35\ngini = 0.09\nsamples = 20\nvalue = [1, 19]\nclass = 1", fillcolor="#43a2e6"] ;
57 -> 61 ;
62 [label="CLNT_SETUP_TENOR <= -1.31\ngini = 0.38\nsamples = 4\nvalue = [1, 3]\nclass = 1", fillcolor="#7bbeee"] ;
61 -> 62 ;
63 [label="gini = 0.0\nsamples = 1\nvalue = [1, 0]\nclass = 0", fillcolor="#e58139"] ;
62 -> 63 ;
64 [label="gini = 0.0\nsamples = 3\nvalue = [0, 3]\nclass = 1", fillcolor="#399de5"] ;
62 -> 64 ;
65 [label="gini = 0.0\nsamples = 16\nvalue = [0, 16]\nclass = 1", fillcolor="#399de5"] ;
61 -> 65 ;
66 [label="REST_DYNAMIC_CUR_1M <= 1.1\ngini = 0.26\nsamples = 247\nvalue = [38, 209]\nclass = 1", fillcolor="#5dafea"] ;
54 -> 66 ;
67 [label="REST_AVG_CUR <= -0.35\ngini = 0.09\nsamples = 44\nvalue = [2, 42]\nclass = 1", fillcolor="#42a2e6"] ;
66 -> 67 ;
68 [label="AGE <= -1.63\ngini = 0.05\nsamples = 42\nvalue = [1, 41]\nclass = 1", fillcolor="#3e9fe6"] ;
67 -> 68 ;
69 [label="REST_AVG_CUR <= -0.35\ngini = 0.32\nsamples = 5\nvalue = [1, 4]\nclass = 1", fillcolor="#6ab6ec"] ;
68 -> 69 ;
70 [label="gini = 0.0\nsamples = 4\nvalue = [0, 4]\nclass = 1", fillcolor="#399de5"] ;
69 -> 70 ;
71 [label="gini = 0.0\nsamples = 1\nvalue = [1, 0]\nclass = 0", fillcolor="#e58139"] ;
69 -> 71 ;
72 [label="gini = 0.0\nsamples = 37\nvalue = [0, 37]\nclass = 1", fillcolor="#399de5"] ;
68 -> 72 ;
73 [label="REST_AVG_CUR <= -0.35\ngini = 0.5\nsamples = 2\nvalue = [1, 1]\nclass = 0", fillcolor="#ffffff"] ;
67 -> 73 ;
74 [label="gini = 0.0\nsamples = 1\nvalue = [1, 0]\nclass = 0", fillcolor="#e58139"] ;
73 -> 74 ;
75 [label="gini = 0.0\nsamples = 1\nvalue = [0, 1]\nclass = 1", fillcolor="#399de5"] ;
73 -> 75 ;
76 [label="REST_DYNAMIC_CUR_1M <= 1.16\ngini = 0.29\nsamples = 203\nvalue = [36, 167]\nclass = 1", fillcolor="#64b2eb"] ;
66 -> 76 ;
77 [label="gini = 0.0\nsamples = 2\nvalue = [2, 0]\nclass = 0", fillcolor="#e58139"] ;
76 -> 77 ;
78 [label="AGE <= -1.72\ngini = 0.28\nsamples = 201\nvalue = [34, 167]\nclass = 1", fillcolor="#61b1ea"] ;
76 -> 78 ;
79 [label="REST_DYNAMIC_CUR_1M <= 2.13\ngini = 0.5\nsamples = 4\nvalue = [2, 2]\nclass = 0", fillcolor="#ffffff"] ;
78 -> 79 ;
80 [label="gini = 0.0\nsamples = 2\nvalue = [0, 2]\nclass = 1", fillcolor="#399de5"] ;
79 -> 80 ;
81 [label="gini = 0.0\nsamples = 2\nvalue = [2, 0]\nclass = 0", fillcolor="#e58139"] ;
79 -> 81 ;
82 [label="REST_AVG_CUR <= -0.35\ngini = 0.27\nsamples = 197\nvalue = [32.0, 165.0]\nclass = 1", fillcolor="#5fb0ea"] ;
78 -> 82 ;
83 [label="CLNT_SETUP_TENOR <= -1.06\ngini = 0.23\nsamples = 136\nvalue = [18, 118]\nclass = 1", fillcolor="#57ace9"] ;
82 -> 83 ;
84 [label="REST_AVG_CUR <= -0.35\ngini = 0.19\nsamples = 121\nvalue = [13, 108]\nclass = 1", fillcolor="#51a9e8"] ;
83 -> 84 ;
85 [label="REST_AVG_CUR <= -0.35\ngini = 0.28\nsamples = 54\nvalue = [9, 45]\nclass = 1", fillcolor="#61b1ea"] ;
84 -> 85 ;
86 [label="CLNT_SETUP_TENOR <= -1.26\ngini = 0.23\nsamples = 52\nvalue = [7, 45]\nclass = 1", fillcolor="#58ace9"] ;
85 -> 86 ;
87 [label="CLNT_SETUP_TENOR <= -1.29\ngini = 0.29\nsamples = 39\nvalue = [7, 32]\nclass = 1", fillcolor="#64b2eb"] ;
86 -> 87 ;
88 [label="AGE <= 0.39\ngini = 0.24\nsamples = 36\nvalue = [5, 31]\nclass = 1", fillcolor="#59ade9"] ;
87 -> 88 ;
89 [label="CLNT_SETUP_TENOR <= -1.34\ngini = 0.13\nsamples = 29\nvalue = [2, 27]\nclass = 1", fillcolor="#48a4e7"] ;
88 -> 89 ;
90 [label="CLNT_SETUP_TENOR <= -1.34\ngini = 0.44\nsamples = 3\nvalue = [1, 2]\nclass = 1", fillcolor="#9ccef2"] ;
89 -> 90 ;
91 [label="gini = 0.0\nsamples = 2\nvalue = [0, 2]\nclass = 1", fillcolor="#399de5"] ;
90 -> 91 ;
92 [label="gini = 0.0\nsamples = 1\nvalue = [1, 0]\nclass = 0", fillcolor="#e58139"] ;
90 -> 92 ;
93 [label="REST_AVG_CUR <= -0.35\ngini = 0.07\nsamples = 26\nvalue = [1, 25]\nclass = 1", fillcolor="#41a1e6"] ;
89 -> 93 ;
94 [label="REST_AVG_CUR <= -0.35\ngini = 0.24\nsamples = 7\nvalue = [1, 6]\nclass = 1", fillcolor="#5aade9"] ;
93 -> 94 ;
95 [label="gini = 0.0\nsamples = 6\nvalue = [0, 6]\nclass = 1", fillcolor="#399de5"] ;
94 -> 95 ;
96 [label="gini = 0.0\nsamples = 1\nvalue = [1, 0]\nclass = 0", fillcolor="#e58139"] ;
94 -> 96 ;
97 [label="gini = 0.0\nsamples = 19\nvalue = [0, 19]\nclass = 1", fillcolor="#399de5"] ;
93 -> 97 ;
98 [label="AGE <= 0.78\ngini = 0.49\nsamples = 7\nvalue = [3, 4]\nclass = 1", fillcolor="#cee6f8"] ;
88 -> 98 ;
99 [label="gini = 0.0\nsamples = 2\nvalue = [2, 0]\nclass = 0", fillcolor="#e58139"] ;
98 -> 99 ;
100 [label="CLNT_SETUP_TENOR <= -1.3\ngini = 0.32\nsamples = 5\nvalue = [1, 4]\nclass = 1", fillcolor="#6ab6ec"] ;
98 -> 100 ;
101 [label="gini = 0.0\nsamples = 1\nvalue = [1, 0]\nclass = 0", fillcolor="#e58139"] ;
100 -> 101 ;
102 [label="gini = 0.0\nsamples = 4\nvalue = [0, 4]\nclass = 1", fillcolor="#399de5"] ;
100 -> 102 ;
103 [label="REST_AVG_CUR <= -0.35\ngini = 0.44\nsamples = 3\nvalue = [2, 1]\nclass = 0", fillcolor="#f2c09c"] ;
87 -> 103 ;
104 [label="gini = 0.0\nsamples = 1\nvalue = [0, 1]\nclass = 1", fillcolor="#399de5"] ;
103 -> 104 ;
105 [label="gini = 0.0\nsamples = 2\nvalue = [2, 0]\nclass = 0", fillcolor="#e58139"] ;
103 -> 105 ;
106 [label="gini = 0.0\nsamples = 13\nvalue = [0, 13]\nclass = 1", fillcolor="#399de5"] ;
86 -> 106 ;
107 [label="gini = 0.0\nsamples = 2\nvalue = [2, 0]\nclass = 0", fillcolor="#e58139"] ;
85 -> 107 ;
108 [label="AGE <= -1.37\ngini = 0.11\nsamples = 67\nvalue = [4, 63]\nclass = 1", fillcolor="#46a3e7"] ;
84 -> 108 ;
109 [label="REST_AVG_CUR <= -0.35\ngini = 0.4\nsamples = 11\nvalue = [3, 8]\nclass = 1", fillcolor="#83c2ef"] ;
108 -> 109 ;
110 [label="gini = 0.0\nsamples = 1\nvalue = [1, 0]\nclass = 0", fillcolor="#e58139"] ;
109 -> 110 ;
111 [label="REST_AVG_CUR <= -0.35\ngini = 0.32\nsamples = 10\nvalue = [2, 8]\nclass = 1", fillcolor="#6ab6ec"] ;
109 -> 111 ;
112 [label="CLNT_SETUP_TENOR <= -1.29\ngini = 0.44\nsamples = 6\nvalue = [2, 4]\nclass = 1", fillcolor="#9ccef2"] ;
111 -> 112 ;
113 [label="REST_AVG_CUR <= -0.35\ngini = 0.44\nsamples = 3\nvalue = [2, 1]\nclass = 0", fillcolor="#f2c09c"] ;
112 -> 113 ;
114 [label="gini = 0.0\nsamples = 1\nvalue = [1, 0]\nclass = 0", fillcolor="#e58139"] ;
113 -> 114 ;
115 [label="REST_AVG_CUR <= -0.35\ngini = 0.5\nsamples = 2\nvalue = [1, 1]\nclass = 0", fillcolor="#ffffff"] ;
113 -> 115 ;
116 [label="gini = 0.0\nsamples = 1\nvalue = [0, 1]\nclass = 1", fillcolor="#399de5"] ;
115 -> 116 ;
117 [label="gini = 0.0\nsamples = 1\nvalue = [1, 0]\nclass = 0", fillcolor="#e58139"] ;
115 -> 117 ;
118 [label="gini = 0.0\nsamples = 3\nvalue = [0, 3]\nclass = 1", fillcolor="#399de5"] ;
112 -> 118 ;
119 [label="gini = 0.0\nsamples = 4\nvalue = [0, 4]\nclass = 1", fillcolor="#399de5"] ;
111 -> 119 ;
120 [label="AGE <= 1.44\ngini = 0.04\nsamples = 56\nvalue = [1, 55]\nclass = 1", fillcolor="#3d9fe5"] ;
108 -> 120 ;
121 [label="gini = 0.0\nsamples = 50\nvalue = [0, 50]\nclass = 1", fillcolor="#399de5"] ;
120 -> 121 ;
122 [label="AGE <= 1.53\ngini = 0.28\nsamples = 6\nvalue = [1, 5]\nclass = 1", fillcolor="#61b1ea"] ;
120 -> 122 ;
123 [label="gini = 0.0\nsamples = 1\nvalue = [1, 0]\nclass = 0", fillcolor="#e58139"] ;
122 -> 123 ;
124 [label="gini = 0.0\nsamples = 5\nvalue = [0, 5]\nclass = 1", fillcolor="#399de5"] ;
122 -> 124 ;
125 [label="REST_DYNAMIC_CUR_1M <= 2.66\ngini = 0.44\nsamples = 15\nvalue = [5, 10]\nclass = 1", fillcolor="#9ccef2"] ;
83 -> 125 ;
126 [label="gini = 0.0\nsamples = 5\nvalue = [0, 5]\nclass = 1", fillcolor="#399de5"] ;
125 -> 126 ;
127 [label="CNT_TRAN_SUP_TENDENCY3M <= 0.02\ngini = 0.5\nsamples = 10\nvalue = [5, 5]\nclass = 0", fillcolor="#ffffff"] ;
125 -> 127 ;
128 [label="CLNT_SETUP_TENOR <= -1.02\ngini = 0.28\nsamples = 6\nvalue = [5, 1]\nclass = 0", fillcolor="#ea9a61"] ;
127 -> 128 ;
129 [label="gini = 0.0\nsamples = 5\nvalue = [5, 0]\nclass = 0", fillcolor="#e58139"] ;
128 -> 129 ;
130 [label="gini = 0.0\nsamples = 1\nvalue = [0, 1]\nclass = 1", fillcolor="#399de5"] ;
128 -> 130 ;
131 [label="gini = 0.0\nsamples = 4\nvalue = [0, 4]\nclass = 1", fillcolor="#399de5"] ;
127 -> 131 ;
132 [label="REST_AVG_CUR <= -0.35\ngini = 0.35\nsamples = 61\nvalue = [14, 47]\nclass = 1", fillcolor="#74baed"] ;
82 -> 132 ;
133 [label="gini = 0.0\nsamples = 2\nvalue = [2, 0]\nclass = 0", fillcolor="#e58139"] ;
132 -> 133 ;
134 [label="AGE <= 0.74\ngini = 0.32\nsamples = 59\nvalue = [12, 47]\nclass = 1", fillcolor="#6cb6ec"] ;
132 -> 134 ;
135 [label="AGE <= -0.32\ngini = 0.39\nsamples = 42\nvalue = [11, 31]\nclass = 1", fillcolor="#7fc0ee"] ;
134 -> 135 ;
136 [label="REST_DYNAMIC_CUR_1M <= 1.61\ngini = 0.27\nsamples = 31\nvalue = [5, 26]\nclass = 1", fillcolor="#5fb0ea"] ;
135 -> 136 ;
137 [label="REST_AVG_CUR <= -0.35\ngini = 0.5\nsamples = 4\nvalue = [2, 2]\nclass = 0", fillcolor="#ffffff"] ;
136 -> 137 ;
138 [label="gini = 0.0\nsamples = 2\nvalue = [2, 0]\nclass = 0", fillcolor="#e58139"] ;
137 -> 138 ;
139 [label="gini = 0.0\nsamples = 2\nvalue = [0, 2]\nclass = 1", fillcolor="#399de5"] ;
137 -> 139 ;
140 [label="REST_AVG_CUR <= -0.35\ngini = 0.2\nsamples = 27\nvalue = [3, 24]\nclass = 1", fillcolor="#52a9e8"] ;
136 -> 140 ;
141 [label="gini = 0.0\nsamples = 13\nvalue = [0, 13]\nclass = 1", fillcolor="#399de5"] ;
140 -> 141 ;
142 [label="REST_AVG_CUR <= -0.35\ngini = 0.34\nsamples = 14\nvalue = [3, 11]\nclass = 1", fillcolor="#6fb8ec"] ;
140 -> 142 ;
143 [label="gini = 0.0\nsamples = 2\nvalue = [2, 0]\nclass = 0", fillcolor="#e58139"] ;
142 -> 143 ;
144 [label="REST_AVG_CUR <= -0.35\ngini = 0.15\nsamples = 12\nvalue = [1, 11]\nclass = 1", fillcolor="#4ba6e7"] ;
142 -> 144 ;
145 [label="CLNT_SETUP_TENOR <= -1.33\ngini = 0.44\nsamples = 3\nvalue = [1, 2]\nclass = 1", fillcolor="#9ccef2"] ;
144 -> 145 ;
146 [label="gini = 0.0\nsamples = 2\nvalue = [0, 2]\nclass = 1", fillcolor="#399de5"] ;
145 -> 146 ;
147 [label="gini = 0.0\nsamples = 1\nvalue = [1, 0]\nclass = 0", fillcolor="#e58139"] ;
145 -> 147 ;
148 [label="gini = 0.0\nsamples = 9\nvalue = [0, 9]\nclass = 1", fillcolor="#399de5"] ;
144 -> 148 ;
149 [label="TRANS_COUNT_ATM_PRC <= 0.14\ngini = 0.5\nsamples = 11\nvalue = [6, 5]\nclass = 0", fillcolor="#fbeade"] ;
135 -> 149 ;
150 [label="CLNT_SETUP_TENOR <= -1.3\ngini = 0.49\nsamples = 9\nvalue = [4, 5]\nclass = 1", fillcolor="#d7ebfa"] ;
149 -> 150 ;
151 [label="AGE <= 0.08\ngini = 0.44\nsamples = 6\nvalue = [4, 2]\nclass = 0", fillcolor="#f2c09c"] ;
150 -> 151 ;
152 [label="REST_AVG_CUR <= -0.35\ngini = 0.44\nsamples = 3\nvalue = [1, 2]\nclass = 1", fillcolor="#9ccef2"] ;
151 -> 152 ;
153 [label="gini = 0.0\nsamples = 1\nvalue = [1, 0]\nclass = 0", fillcolor="#e58139"] ;
152 -> 153 ;
154 [label="gini = 0.0\nsamples = 2\nvalue = [0, 2]\nclass = 1", fillcolor="#399de5"] ;
152 -> 154 ;
155 [label="gini = 0.0\nsamples = 3\nvalue = [3, 0]\nclass = 0", fillcolor="#e58139"] ;
151 -> 155 ;
156 [label="gini = 0.0\nsamples = 3\nvalue = [0, 3]\nclass = 1", fillcolor="#399de5"] ;
150 -> 156 ;
157 [label="gini = 0.0\nsamples = 2\nvalue = [2, 0]\nclass = 0", fillcolor="#e58139"] ;
149 -> 157 ;
158 [label="REST_AVG_CUR <= -0.35\ngini = 0.11\nsamples = 17\nvalue = [1, 16]\nclass = 1", fillcolor="#45a3e7"] ;
134 -> 158 ;
159 [label="gini = 0.0\nsamples = 15\nvalue = [0, 15]\nclass = 1", fillcolor="#399de5"] ;
158 -> 159 ;
160 [label="REST_DYNAMIC_CUR_1M <= 3.09\ngini = 0.5\nsamples = 2\nvalue = [1, 1]\nclass = 0", fillcolor="#ffffff"] ;
158 -> 160 ;
161 [label="gini = 0.0\nsamples = 1\nvalue = [1, 0]\nclass = 0", fillcolor="#e58139"] ;
160 -> 161 ;
162 [label="gini = 0.0\nsamples = 1\nvalue = [0, 1]\nclass = 1", fillcolor="#399de5"] ;
160 -> 162 ;
163 [label="CLNT_SETUP_TENOR <= -1.32\ngini = 0.36\nsamples = 38\nvalue = [9, 29]\nclass = 1", fillcolor="#76bbed"] ;
53 -> 163 ;
164 [label="gini = 0.0\nsamples = 1\nvalue = [1, 0]\nclass = 0", fillcolor="#e58139"] ;
163 -> 164 ;
165 [label="REST_DYNAMIC_PAYM_3M <= 4.21\ngini = 0.34\nsamples = 37\nvalue = [8, 29]\nclass = 1", fillcolor="#70b8ec"] ;
163 -> 165 ;
166 [label="gini = 0.0\nsamples = 1\nvalue = [1, 0]\nclass = 0", fillcolor="#e58139"] ;
165 -> 166 ;
167 [label="REST_AVG_PAYM <= -0.14\ngini = 0.31\nsamples = 36\nvalue = [7, 29]\nclass = 1", fillcolor="#69b5eb"] ;
165 -> 167 ;
168 [label="AGE <= 0.48\ngini = 0.43\nsamples = 19\nvalue = [6, 13]\nclass = 1", fillcolor="#94caf1"] ;
167 -> 168 ;
169 [label="REST_AVG_PAYM <= -0.14\ngini = 0.36\nsamples = 17\nvalue = [4, 13]\nclass = 1", fillcolor="#76bbed"] ;
168 -> 169 ;
170 [label="AGE <= -1.37\ngini = 0.3\nsamples = 16\nvalue = [3, 13]\nclass = 1", fillcolor="#67b4eb"] ;
169 -> 170 ;
171 [label="gini = 0.0\nsamples = 8\nvalue = [0, 8]\nclass = 1", fillcolor="#399de5"] ;
170 -> 171 ;
172 [label="REST_AVG_PAYM <= -0.14\ngini = 0.47\nsamples = 8\nvalue = [3, 5]\nclass = 1", fillcolor="#b0d8f5"] ;
170 -> 172 ;
173 [label="gini = 0.0\nsamples = 3\nvalue = [0, 3]\nclass = 1", fillcolor="#399de5"] ;
172 -> 173 ;
174 [label="AGE <= -0.84\ngini = 0.48\nsamples = 5\nvalue = [3, 2]\nclass = 0", fillcolor="#f6d5bd"] ;
172 -> 174 ;
175 [label="gini = 0.0\nsamples = 3\nvalue = [3, 0]\nclass = 0", fillcolor="#e58139"] ;
174 -> 175 ;
176 [label="gini = 0.0\nsamples = 2\nvalue = [0, 2]\nclass = 1", fillcolor="#399de5"] ;
174 -> 176 ;
177 [label="gini = 0.0\nsamples = 1\nvalue = [1, 0]\nclass = 0", fillcolor="#e58139"] ;
169 -> 177 ;
178 [label="gini = 0.0\nsamples = 2\nvalue = [2, 0]\nclass = 0", fillcolor="#e58139"] ;
168 -> 178 ;
179 [label="CLNT_SETUP_TENOR <= -1.3\ngini = 0.11\nsamples = 17\nvalue = [1, 16]\nclass = 1", fillcolor="#45a3e7"] ;
167 -> 179 ;
180 [label="gini = 0.0\nsamples = 1\nvalue = [1, 0]\nclass = 0", fillcolor="#e58139"] ;
179 -> 180 ;
181 [label="gini = 0.0\nsamples = 16\nvalue = [0, 16]\nclass = 1", fillcolor="#399de5"] ;
179 -> 181 ;
182 [label="CLNT_SETUP_TENOR <= -1.09\ngini = 0.49\nsamples = 9\nvalue = [4, 5]\nclass = 1", fillcolor="#d7ebfa"] ;
52 -> 182 ;
183 [label="TURNOVER_DYNAMIC_IL_1M <= 17.39\ngini = 0.41\nsamples = 7\nvalue = [2, 5]\nclass = 1", fillcolor="#88c4ef"] ;
182 -> 183 ;
184 [label="AGE <= -0.1\ngini = 0.28\nsamples = 6\nvalue = [1, 5]\nclass = 1", fillcolor="#61b1ea"] ;
183 -> 184 ;
185 [label="AGE <= -0.27\ngini = 0.44\nsamples = 3\nvalue = [1, 2]\nclass = 1", fillcolor="#9ccef2"] ;
184 -> 185 ;
186 [label="gini = 0.0\nsamples = 2\nvalue = [0, 2]\nclass = 1", fillcolor="#399de5"] ;
185 -> 186 ;
187 [label="gini = 0.0\nsamples = 1\nvalue = [1, 0]\nclass = 0", fillcolor="#e58139"] ;
185 -> 187 ;
188 [label="gini = 0.0\nsamples = 3\nvalue = [0, 3]\nclass = 1", fillcolor="#399de5"] ;
184 -> 188 ;
189 [label="gini = 0.0\nsamples = 1\nvalue = [1, 0]\nclass = 0", fillcolor="#e58139"] ;
183 -> 189 ;
190 [label="gini = 0.0\nsamples = 2\nvalue = [2, 0]\nclass = 0", fillcolor="#e58139"] ;
182 -> 190 ;
191 [label="REST_DYNAMIC_CUR_1M <= -0.2\ngini = 0.44\nsamples = 3\nvalue = [2, 1]\nclass = 0", fillcolor="#f2c09c"] ;
51 -> 191 ;
192 [label="gini = 0.0\nsamples = 1\nvalue = [0, 1]\nclass = 1", fillcolor="#399de5"] ;
191 -> 192 ;
193 [label="gini = 0.0\nsamples = 2\nvalue = [2, 0]\nclass = 0", fillcolor="#e58139"] ;
191 -> 193 ;
194 [label="CLNT_SETUP_TENOR <= -0.74\ngini = 0.21\nsamples = 1096\nvalue = [132, 964]\nclass = 1", fillcolor="#54aae9"] ;
50 -> 194 ;
195 [label="REST_DYNAMIC_IL_1M <= 3.43\ngini = 0.15\nsamples = 240\nvalue = [20, 220]\nclass = 1", fillcolor="#4ba6e7"] ;
194 -> 195 ;
196 [label="AGE <= -1.02\ngini = 0.15\nsamples = 238\nvalue = [19, 219]\nclass = 1", fillcolor="#4aa6e7"] ;
195 -> 196 ;
197 [label="CLNT_SETUP_TENOR <= -0.83\ngini = 0.22\nsamples = 93\nvalue = [12, 81]\nclass = 1", fillcolor="#56ace9"] ;
196 -> 197 ;
198 [label="CLNT_SETUP_TENOR <= -0.91\ngini = 0.33\nsamples = 48\nvalue = [10, 38]\nclass = 1", fillcolor="#6db7ec"] ;
197 -> 198 ;
199 [label="REST_DYNAMIC_PAYM_3M <= 4.51\ngini = 0.17\nsamples = 31\nvalue = [3, 28]\nclass = 1", fillcolor="#4ea8e8"] ;
198 -> 199 ;
200 [label="AGE <= -1.55\ngini = 0.08\nsamples = 25\nvalue = [1, 24]\nclass = 1", fillcolor="#41a1e6"] ;
199 -> 200 ;
201 [label="CLNT_SETUP_TENOR <= -0.97\ngini = 0.24\nsamples = 7\nvalue = [1, 6]\nclass = 1", fillcolor="#5aade9"] ;
200 -> 201 ;
202 [label="CLNT_SETUP_TENOR <= -0.98\ngini = 0.44\nsamples = 3\nvalue = [1, 2]\nclass = 1", fillcolor="#9ccef2"] ;
201 -> 202 ;
203 [label="gini = 0.0\nsamples = 2\nvalue = [0, 2]\nclass = 1", fillcolor="#399de5"] ;
202 -> 203 ;
204 [label="gini = 0.0\nsamples = 1\nvalue = [1, 0]\nclass = 0", fillcolor="#e58139"] ;
202 -> 204 ;
205 [label="gini = 0.0\nsamples = 4\nvalue = [0, 4]\nclass = 1", fillcolor="#399de5"] ;
201 -> 205 ;
206 [label="gini = 0.0\nsamples = 18\nvalue = [0, 18]\nclass = 1", fillcolor="#399de5"] ;
200 -> 206 ;
207 [label="AGE <= -1.46\ngini = 0.44\nsamples = 6\nvalue = [2, 4]\nclass = 1", fillcolor="#9ccef2"] ;
199 -> 207 ;
208 [label="gini = 0.0\nsamples = 4\nvalue = [0, 4]\nclass = 1", fillcolor="#399de5"] ;
207 -> 208 ;
209 [label="gini = 0.0\nsamples = 2\nvalue = [2, 0]\nclass = 0", fillcolor="#e58139"] ;
207 -> 209 ;
210 [label="TRANS_COUNT_ATM_PRC <= 0.14\ngini = 0.48\nsamples = 17\nvalue = [7, 10]\nclass = 1", fillcolor="#c4e2f7"] ;
198 -> 210 ;
211 [label="gini = 0.0\nsamples = 4\nvalue = [4, 0]\nclass = 0", fillcolor="#e58139"] ;
210 -> 211 ;
212 [label="REST_AVG_CUR <= -0.35\ngini = 0.36\nsamples = 13\nvalue = [3, 10]\nclass = 1", fillcolor="#74baed"] ;
210 -> 212 ;
213 [label="REST_AVG_PAYM <= -0.14\ngini = 0.18\nsamples = 10\nvalue = [1, 9]\nclass = 1", fillcolor="#4fa8e8"] ;
212 -> 213 ;
214 [label="gini = 0.0\nsamples = 9\nvalue = [0, 9]\nclass = 1", fillcolor="#399de5"] ;
213 -> 214 ;
215 [label="gini = 0.0\nsamples = 1\nvalue = [1, 0]\nclass = 0", fillcolor="#e58139"] ;
213 -> 215 ;
216 [label="REST_AVG_CUR <= -0.35\ngini = 0.44\nsamples = 3\nvalue = [2, 1]\nclass = 0", fillcolor="#f2c09c"] ;
212 -> 216 ;
217 [label="gini = 0.0\nsamples = 2\nvalue = [2, 0]\nclass = 0", fillcolor="#e58139"] ;
216 -> 217 ;
218 [label="gini = 0.0\nsamples = 1\nvalue = [0, 1]\nclass = 1", fillcolor="#399de5"] ;
216 -> 218 ;
219 [label="AGE <= -1.55\ngini = 0.08\nsamples = 45\nvalue = [2, 43]\nclass = 1", fillcolor="#42a2e6"] ;
197 -> 219 ;
220 [label="REST_DYNAMIC_PAYM_3M <= 4.51\ngini = 0.28\nsamples = 6\nvalue = [1, 5]\nclass = 1", fillcolor="#61b1ea"] ;
219 -> 220 ;
221 [label="gini = 0.0\nsamples = 5\nvalue = [0, 5]\nclass = 1", fillcolor="#399de5"] ;
220 -> 221 ;
222 [label="gini = 0.0\nsamples = 1\nvalue = [1, 0]\nclass = 0", fillcolor="#e58139"] ;
220 -> 222 ;
223 [label="REST_AVG_CUR <= -0.35\ngini = 0.05\nsamples = 39\nvalue = [1, 38]\nclass = 1", fillcolor="#3ea0e6"] ;
219 -> 223 ;
224 [label="gini = 0.0\nsamples = 32\nvalue = [0, 32]\nclass = 1", fillcolor="#399de5"] ;
223 -> 224 ;
225 [label="REST_AVG_CUR <= -0.35\ngini = 0.24\nsamples = 7\nvalue = [1, 6]\nclass = 1", fillcolor="#5aade9"] ;
223 -> 225 ;
226 [label="gini = 0.0\nsamples = 1\nvalue = [1, 0]\nclass = 0", fillcolor="#e58139"] ;
225 -> 226 ;
227 [label="gini = 0.0\nsamples = 6\nvalue = [0, 6]\nclass = 1", fillcolor="#399de5"] ;
225 -> 227 ;
228 [label="REST_DYNAMIC_PAYM_3M <= 4.07\ngini = 0.09\nsamples = 145\nvalue = [7, 138]\nclass = 1", fillcolor="#43a2e6"] ;
196 -> 228 ;
229 [label="CLNT_SETUP_TENOR <= -1.0\ngini = 0.06\nsamples = 122\nvalue = [4, 118]\nclass = 1", fillcolor="#40a0e6"] ;
228 -> 229 ;
230 [label="REST_AVG_CUR <= -0.35\ngini = 0.44\nsamples = 3\nvalue = [1, 2]\nclass = 1", fillcolor="#9ccef2"] ;
229 -> 230 ;
231 [label="gini = 0.0\nsamples = 2\nvalue = [0, 2]\nclass = 1", fillcolor="#399de5"] ;
230 -> 231 ;
232 [label="gini = 0.0\nsamples = 1\nvalue = [1, 0]\nclass = 0", fillcolor="#e58139"] ;
230 -> 232 ;
233 [label="AGE <= 2.06\ngini = 0.05\nsamples = 119\nvalue = [3, 116]\nclass = 1", fillcolor="#3ea0e6"] ;
229 -> 233 ;
234 [label="CLNT_SETUP_TENOR <= -0.77\ngini = 0.03\nsamples = 114\nvalue = [2, 112]\nclass = 1", fillcolor="#3d9fe5"] ;
233 -> 234 ;
235 [label="REST_DYNAMIC_CUR_1M <= 3.34\ngini = 0.02\nsamples = 102\nvalue = [1, 101]\nclass = 1", fillcolor="#3b9ee5"] ;
234 -> 235 ;
236 [label="gini = 0.0\nsamples = 91\nvalue = [0, 91]\nclass = 1", fillcolor="#399de5"] ;
235 -> 236 ;
237 [label="AGE <= -0.36\ngini = 0.17\nsamples = 11\nvalue = [1, 10]\nclass = 1", fillcolor="#4da7e8"] ;
235 -> 237 ;
238 [label="gini = 0.0\nsamples = 6\nvalue = [0, 6]\nclass = 1", fillcolor="#399de5"] ;
237 -> 238 ;
239 [label="CLNT_SETUP_TENOR <= -0.89\ngini = 0.32\nsamples = 5\nvalue = [1, 4]\nclass = 1", fillcolor="#6ab6ec"] ;
237 -> 239 ;
240 [label="TRANS_COUNT_ATM_PRC <= 0.14\ngini = 0.5\nsamples = 2\nvalue = [1, 1]\nclass = 0", fillcolor="#ffffff"] ;
239 -> 240 ;
241 [label="gini = 0.0\nsamples = 1\nvalue = [1, 0]\nclass = 0", fillcolor="#e58139"] ;
240 -> 241 ;
242 [label="gini = 0.0\nsamples = 1\nvalue = [0, 1]\nclass = 1", fillcolor="#399de5"] ;
240 -> 242 ;
243 [label="gini = 0.0\nsamples = 3\nvalue = [0, 3]\nclass = 1", fillcolor="#399de5"] ;
239 -> 243 ;
244 [label="CLNT_SETUP_TENOR <= -0.77\ngini = 0.15\nsamples = 12\nvalue = [1, 11]\nclass = 1", fillcolor="#4ba6e7"] ;
234 -> 244 ;
245 [label="gini = 0.0\nsamples = 1\nvalue = [1, 0]\nclass = 0", fillcolor="#e58139"] ;
244 -> 245 ;
246 [label="gini = 0.0\nsamples = 11\nvalue = [0, 11]\nclass = 1", fillcolor="#399de5"] ;
244 -> 246 ;
247 [label="AGE <= 2.19\ngini = 0.32\nsamples = 5\nvalue = [1, 4]\nclass = 1", fillcolor="#6ab6ec"] ;
233 -> 247 ;
248 [label="gini = 0.0\nsamples = 1\nvalue = [1, 0]\nclass = 0", fillcolor="#e58139"] ;
247 -> 248 ;
249 [label="gini = 0.0\nsamples = 4\nvalue = [0, 4]\nclass = 1", fillcolor="#399de5"] ;
247 -> 249 ;
250 [label="REST_DYNAMIC_PAYM_3M <= 4.16\ngini = 0.23\nsamples = 23\nvalue = [3, 20]\nclass = 1", fillcolor="#57ace9"] ;
228 -> 250 ;
251 [label="gini = 0.0\nsamples = 1\nvalue = [1, 0]\nclass = 0", fillcolor="#e58139"] ;
250 -> 251 ;
252 [label="CLNT_SETUP_TENOR <= -0.81\ngini = 0.17\nsamples = 22\nvalue = [2, 20]\nclass = 1", fillcolor="#4da7e8"] ;
250 -> 252 ;
253 [label="gini = 0.0\nsamples = 15\nvalue = [0, 15]\nclass = 1", fillcolor="#399de5"] ;
252 -> 253 ;
254 [label="CLNT_SETUP_TENOR <= -0.8\ngini = 0.41\nsamples = 7\nvalue = [2, 5]\nclass = 1", fillcolor="#88c4ef"] ;
252 -> 254 ;
255 [label="gini = 0.0\nsamples = 2\nvalue = [2, 0]\nclass = 0", fillcolor="#e58139"] ;
254 -> 255 ;
256 [label="gini = 0.0\nsamples = 5\nvalue = [0, 5]\nclass = 1", fillcolor="#399de5"] ;
254 -> 256 ;
257 [label="TRANS_COUNT_ATM_PRC <= 0.3\ngini = 0.5\nsamples = 2\nvalue = [1, 1]\nclass = 0", fillcolor="#ffffff"] ;
195 -> 257 ;
258 [label="gini = 0.0\nsamples = 1\nvalue = [1, 0]\nclass = 0", fillcolor="#e58139"] ;
257 -> 258 ;
259 [label="gini = 0.0\nsamples = 1\nvalue = [0, 1]\nclass = 1", fillcolor="#399de5"] ;
257 -> 259 ;
260 [label="CLNT_SETUP_TENOR <= -0.74\ngini = 0.23\nsamples = 856\nvalue = [112.0, 744.0]\nclass = 1", fillcolor="#57ace9"] ;
194 -> 260 ;
261 [label="gini = 0.0\nsamples = 1\nvalue = [1, 0]\nclass = 0", fillcolor="#e58139"] ;
260 -> 261 ;
262 [label="REST_DYNAMIC_IL_1M <= 0.1\ngini = 0.23\nsamples = 855\nvalue = [111.0, 744.0]\nclass = 1", fillcolor="#57ace9"] ;
260 -> 262 ;
263 [label="REST_DYNAMIC_IL_1M <= 0.09\ngini = 0.23\nsamples = 830\nvalue = [111, 719]\nclass = 1", fillcolor="#58ace9"] ;
262 -> 263 ;
264 [label="CR_PROD_CNT_IL <= 3.23\ngini = 0.23\nsamples = 829\nvalue = [110, 719]\nclass = 1", fillcolor="#57ace9"] ;
263 -> 264 ;
265 [label="REST_AVG_PAYM <= -0.13\ngini = 0.24\nsamples = 794\nvalue = [109, 685]\nclass = 1", fillcolor="#59ade9"] ;
264 -> 265 ;
266 [label="AGE <= -0.58\ngini = 0.23\nsamples = 750\nvalue = [99, 651]\nclass = 1", fillcolor="#57ace9"] ;
265 -> 266 ;
267 [label="REST_AVG_CUR <= -0.35\ngini = 0.19\nsamples = 309\nvalue = [32, 277]\nclass = 1", fillcolor="#50a8e8"] ;
266 -> 267 ;
268 [label="CLNT_SETUP_TENOR <= 2.2\ngini = 0.18\nsamples = 308\nvalue = [31, 277]\nclass = 1", fillcolor="#4fa8e8"] ;
267 -> 268 ;
269 [label="AGE <= -1.2\ngini = 0.18\nsamples = 307\nvalue = [30, 277]\nclass = 1", fillcolor="#4ea8e8"] ;
268 -> 269 ;
270 [label="REST_AVG_PAYM <= -0.14\ngini = 0.25\nsamples = 88\nvalue = [13, 75]\nclass = 1", fillcolor="#5baeea"] ;
269 -> 270 ;
271 [label="REST_AVG_PAYM <= -0.14\ngini = 0.33\nsamples = 63\nvalue = [13, 50]\nclass = 1", fillcolor="#6cb6ec"] ;
270 -> 271 ;
272 [label="AGE <= -1.37\ngini = 0.31\nsamples = 62\nvalue = [12, 50]\nclass = 1", fillcolor="#69b5eb"] ;
271 -> 272 ;
273 [label="CNT_TRAN_ATM_TENDENCY3M <= -0.83\ngini = 0.15\nsamples = 24\nvalue = [2, 22]\nclass = 1", fillcolor="#4ba6e7"] ;
272 -> 273 ;
274 [label="REST_AVG_PAYM <= -0.15\ngini = 0.41\nsamples = 7\nvalue = [2, 5]\nclass = 1", fillcolor="#88c4ef"] ;
273 -> 274 ;
275 [label="gini = 0.0\nsamples = 2\nvalue = [2, 0]\nclass = 0", fillcolor="#e58139"] ;
274 -> 275 ;
276 [label="gini = 0.0\nsamples = 5\nvalue = [0, 5]\nclass = 1", fillcolor="#399de5"] ;
274 -> 276 ;
277 [label="gini = 0.0\nsamples = 17\nvalue = [0, 17]\nclass = 1", fillcolor="#399de5"] ;
273 -> 277 ;
278 [label="CLNT_SETUP_TENOR <= 0.47\ngini = 0.39\nsamples = 38\nvalue = [10, 28]\nclass = 1", fillcolor="#80c0ee"] ;
272 -> 278 ;
279 [label="CLNT_SETUP_TENOR <= 0.4\ngini = 0.42\nsamples = 33\nvalue = [10, 23]\nclass = 1", fillcolor="#8fc8f0"] ;
278 -> 279 ;
280 [label="REST_AVG_CUR <= -0.35\ngini = 0.4\nsamples = 32\nvalue = [9, 23]\nclass = 1", fillcolor="#86c3ef"] ;
279 -> 280 ;
281 [label="CLNT_SETUP_TENOR <= -0.29\ngini = 0.33\nsamples = 24\nvalue = [5, 19]\nclass = 1", fillcolor="#6db7ec"] ;
280 -> 281 ;
282 [label="CLNT_SETUP_TENOR <= -0.39\ngini = 0.47\nsamples = 13\nvalue = [5, 8]\nclass = 1", fillcolor="#b5daf5"] ;
281 -> 282 ;
283 [label="REST_AVG_CUR <= -0.35\ngini = 0.4\nsamples = 11\nvalue = [3, 8]\nclass = 1", fillcolor="#83c2ef"] ;
282 -> 283 ;
284 [label="AGE <= -1.28\ngini = 0.44\nsamples = 3\nvalue = [2, 1]\nclass = 0", fillcolor="#f2c09c"] ;
283 -> 284 ;
285 [label="gini = 0.0\nsamples = 1\nvalue = [0, 1]\nclass = 1", fillcolor="#399de5"] ;
284 -> 285 ;
286 [label="gini = 0.0\nsamples = 2\nvalue = [2, 0]\nclass = 0", fillcolor="#e58139"] ;
284 -> 286 ;
287 [label="CNT_TRAN_SUP_TENDENCY3M <= 0.02\ngini = 0.22\nsamples = 8\nvalue = [1, 7]\nclass = 1", fillcolor="#55abe9"] ;
283 -> 287 ;
288 [label="gini = 0.0\nsamples = 5\nvalue = [0, 5]\nclass = 1", fillcolor="#399de5"] ;
287 -> 288 ;
289 [label="CLNT_SETUP_TENOR <= -0.63\ngini = 0.44\nsamples = 3\nvalue = [1, 2]\nclass = 1", fillcolor="#9ccef2"] ;
287 -> 289 ;
290 [label="gini = 0.0\nsamples = 1\nvalue = [1, 0]\nclass = 0", fillcolor="#e58139"] ;
289 -> 290 ;
291 [label="gini = 0.0\nsamples = 2\nvalue = [0, 2]\nclass = 1", fillcolor="#399de5"] ;
289 -> 291 ;
292 [label="gini = 0.0\nsamples = 2\nvalue = [2, 0]\nclass = 0", fillcolor="#e58139"] ;
282 -> 292 ;
293 [label="gini = 0.0\nsamples = 11\nvalue = [0, 11]\nclass = 1", fillcolor="#399de5"] ;
281 -> 293 ;
294 [label="CLNT_SETUP_TENOR <= -0.46\ngini = 0.5\nsamples = 8\nvalue = [4, 4]\nclass = 0", fillcolor="#ffffff"] ;
280 -> 294 ;
295 [label="gini = 0.0\nsamples = 3\nvalue = [0, 3]\nclass = 1", fillcolor="#399de5"] ;
294 -> 295 ;
296 [label="REST_DYNAMIC_CUR_1M <= 1.02\ngini = 0.32\nsamples = 5\nvalue = [4, 1]\nclass = 0", fillcolor="#eca06a"] ;
294 -> 296 ;
297 [label="gini = 0.0\nsamples = 1\nvalue = [0, 1]\nclass = 1", fillcolor="#399de5"] ;
296 -> 297 ;
298 [label="gini = 0.0\nsamples = 4\nvalue = [4, 0]\nclass = 0", fillcolor="#e58139"] ;
296 -> 298 ;
299 [label="gini = 0.0\nsamples = 1\nvalue = [1, 0]\nclass = 0", fillcolor="#e58139"] ;
279 -> 299 ;
300 [label="gini = 0.0\nsamples = 5\nvalue = [0, 5]\nclass = 1", fillcolor="#399de5"] ;
278 -> 300 ;
301 [label="gini = 0.0\nsamples = 1\nvalue = [1, 0]\nclass = 0", fillcolor="#e58139"] ;
271 -> 301 ;
302 [label="gini = 0.0\nsamples = 25\nvalue = [0, 25]\nclass = 1", fillcolor="#399de5"] ;
270 -> 302 ;
303 [label="CLNT_SETUP_TENOR <= -0.07\ngini = 0.14\nsamples = 219\nvalue = [17, 202]\nclass = 1", fillcolor="#4aa5e7"] ;
269 -> 303 ;
304 [label="AGE <= -1.02\ngini = 0.06\nsamples = 97\nvalue = [3, 94]\nclass = 1", fillcolor="#3fa0e6"] ;
303 -> 304 ;
305 [label="REST_AVG_CUR <= -0.35\ngini = 0.15\nsamples = 36\nvalue = [3, 33]\nclass = 1", fillcolor="#4ba6e7"] ;
304 -> 305 ;
306 [label="PACK_107 <= 1.57\ngini = 0.11\nsamples = 35\nvalue = [2, 33]\nclass = 1", fillcolor="#45a3e7"] ;
305 -> 306 ;
307 [label="REST_DYNAMIC_PAYM_3M <= 3.85\ngini = 0.06\nsamples = 30\nvalue = [1, 29]\nclass = 1", fillcolor="#40a0e6"] ;
306 -> 307 ;
308 [label="gini = 0.0\nsamples = 21\nvalue = [0, 21]\nclass = 1", fillcolor="#399de5"] ;
307 -> 308 ;
309 [label="REST_DYNAMIC_PAYM_3M <= 3.95\ngini = 0.2\nsamples = 9\nvalue = [1, 8]\nclass = 1", fillcolor="#52a9e8"] ;
307 -> 309 ;
310 [label="gini = 0.0\nsamples = 1\nvalue = [1, 0]\nclass = 0", fillcolor="#e58139"] ;
309 -> 310 ;
311 [label="gini = 0.0\nsamples = 8\nvalue = [0, 8]\nclass = 1", fillcolor="#399de5"] ;
309 -> 311 ;
312 [label="REST_DYNAMIC_CUR_1M <= 1.84\ngini = 0.32\nsamples = 5\nvalue = [1, 4]\nclass = 1", fillcolor="#6ab6ec"] ;
306 -> 312 ;
313 [label="gini = 0.0\nsamples = 4\nvalue = [0, 4]\nclass = 1", fillcolor="#399de5"] ;
312 -> 313 ;
314 [label="gini = 0.0\nsamples = 1\nvalue = [1, 0]\nclass = 0", fillcolor="#e58139"] ;
312 -> 314 ;
315 [label="gini = 0.0\nsamples = 1\nvalue = [1, 0]\nclass = 0", fillcolor="#e58139"] ;
305 -> 315 ;
316 [label="gini = 0.0\nsamples = 61\nvalue = [0, 61]\nclass = 1", fillcolor="#399de5"] ;
304 -> 316 ;
317 [label="CLNT_SETUP_TENOR <= -0.07\ngini = 0.2\nsamples = 122\nvalue = [14, 108]\nclass = 1", fillcolor="#53aae8"] ;
303 -> 317 ;
318 [label="gini = 0.0\nsamples = 1\nvalue = [1, 0]\nclass = 0", fillcolor="#e58139"] ;
317 -> 318 ;
319 [label="REST_AVG_CUR <= -0.35\ngini = 0.19\nsamples = 121\nvalue = [13, 108]\nclass = 1", fillcolor="#51a9e8"] ;
317 -> 319 ;
320 [label="REST_DYNAMIC_PAYM_3M <= 2.34\ngini = 0.33\nsamples = 33\nvalue = [7, 26]\nclass = 1", fillcolor="#6eb7ec"] ;
319 -> 320 ;
321 [label="REST_AVG_PAYM <= -0.15\ngini = 0.48\nsamples = 5\nvalue = [3, 2]\nclass = 0", fillcolor="#f6d5bd"] ;
320 -> 321 ;
322 [label="REST_DYNAMIC_PAYM_3M <= 0.65\ngini = 0.44\nsamples = 3\nvalue = [1, 2]\nclass = 1", fillcolor="#9ccef2"] ;
321 -> 322 ;
323 [label="gini = 0.0\nsamples = 1\nvalue = [1, 0]\nclass = 0", fillcolor="#e58139"] ;
322 -> 323 ;
324 [label="gini = 0.0\nsamples = 2\nvalue = [0, 2]\nclass = 1", fillcolor="#399de5"] ;
322 -> 324 ;
325 [label="gini = 0.0\nsamples = 2\nvalue = [2, 0]\nclass = 0", fillcolor="#e58139"] ;
321 -> 325 ;
326 [label="REST_AVG_PAYM <= -0.14\ngini = 0.24\nsamples = 28\nvalue = [4, 24]\nclass = 1", fillcolor="#5aade9"] ;
320 -> 326 ;
327 [label="CLNT_SETUP_TENOR <= 0.31\ngini = 0.1\nsamples = 18\nvalue = [1, 17]\nclass = 1", fillcolor="#45a3e7"] ;
326 -> 327 ;
328 [label="CLNT_SETUP_TENOR <= 0.26\ngini = 0.24\nsamples = 7\nvalue = [1, 6]\nclass = 1", fillcolor="#5aade9"] ;
327 -> 328 ;
329 [label="gini = 0.0\nsamples = 6\nvalue = [0, 6]\nclass = 1", fillcolor="#399de5"] ;
328 -> 329 ;
330 [label="gini = 0.0\nsamples = 1\nvalue = [1, 0]\nclass = 0", fillcolor="#e58139"] ;
328 -> 330 ;
331 [label="gini = 0.0\nsamples = 11\nvalue = [0, 11]\nclass = 1", fillcolor="#399de5"] ;
327 -> 331 ;
332 [label="REST_AVG_PAYM <= -0.14\ngini = 0.42\nsamples = 10\nvalue = [3, 7]\nclass = 1", fillcolor="#8ec7f0"] ;
326 -> 332 ;
333 [label="gini = 0.0\nsamples = 2\nvalue = [2, 0]\nclass = 0", fillcolor="#e58139"] ;
332 -> 333 ;
334 [label="CLNT_SETUP_TENOR <= 0.97\ngini = 0.22\nsamples = 8\nvalue = [1, 7]\nclass = 1", fillcolor="#55abe9"] ;
332 -> 334 ;
335 [label="gini = 0.0\nsamples = 7\nvalue = [0, 7]\nclass = 1", fillcolor="#399de5"] ;
334 -> 335 ;
336 [label="gini = 0.0\nsamples = 1\nvalue = [1, 0]\nclass = 0", fillcolor="#e58139"] ;
334 -> 336 ;
337 [label="CLNT_SETUP_TENOR <= -0.01\ngini = 0.13\nsamples = 88\nvalue = [6, 82]\nclass = 1", fillcolor="#47a4e7"] ;
319 -> 337 ;
338 [label="CLNT_SETUP_TENOR <= -0.02\ngini = 0.38\nsamples = 4\nvalue = [1, 3]\nclass = 1", fillcolor="#7bbeee"] ;
337 -> 338 ;
339 [label="gini = 0.0\nsamples = 3\nvalue = [0, 3]\nclass = 1", fillcolor="#399de5"] ;
338 -> 339 ;
340 [label="gini = 0.0\nsamples = 1\nvalue = [1, 0]\nclass = 0", fillcolor="#e58139"] ;
338 -> 340 ;
341 [label="AGE <= -0.67\ngini = 0.11\nsamples = 84\nvalue = [5, 79]\nclass = 1", fillcolor="#46a3e7"] ;
337 -> 341 ;
342 [label="REST_DYNAMIC_CUR_1M <= 1.15\ngini = 0.08\nsamples = 72\nvalue = [3, 69]\nclass = 1", fillcolor="#42a1e6"] ;
341 -> 342 ;
343 [label="REST_DYNAMIC_CUR_1M <= 1.07\ngini = 0.24\nsamples = 22\nvalue = [3, 19]\nclass = 1", fillcolor="#58ace9"] ;
342 -> 343 ;
344 [label="CLNT_SETUP_TENOR <= 0.95\ngini = 0.17\nsamples = 21\nvalue = [2, 19]\nclass = 1", fillcolor="#4ea7e8"] ;
343 -> 344 ;
345 [label="gini = 0.0\nsamples = 15\nvalue = [0, 15]\nclass = 1", fillcolor="#399de5"] ;
344 -> 345 ;
346 [label="REST_DYNAMIC_CUR_1M <= 0.61\ngini = 0.44\nsamples = 6\nvalue = [2, 4]\nclass = 1", fillcolor="#9ccef2"] ;
344 -> 346 ;
347 [label="gini = 0.0\nsamples = 4\nvalue = [0, 4]\nclass = 1", fillcolor="#399de5"] ;
346 -> 347 ;
348 [label="gini = 0.0\nsamples = 2\nvalue = [2, 0]\nclass = 0", fillcolor="#e58139"] ;
346 -> 348 ;
349 [label="gini = 0.0\nsamples = 1\nvalue = [1, 0]\nclass = 0", fillcolor="#e58139"] ;
343 -> 349 ;
350 [label="gini = 0.0\nsamples = 50\nvalue = [0, 50]\nclass = 1", fillcolor="#399de5"] ;
342 -> 350 ;
351 [label="CLNT_SETUP_TENOR <= 0.45\ngini = 0.28\nsamples = 12\nvalue = [2, 10]\nclass = 1", fillcolor="#61b1ea"] ;
341 -> 351 ;
352 [label="PACK_102 <= 0.36\ngini = 0.44\nsamples = 3\nvalue = [2, 1]\nclass = 0", fillcolor="#f2c09c"] ;
351 -> 352 ;
353 [label="gini = 0.0\nsamples = 2\nvalue = [2, 0]\nclass = 0", fillcolor="#e58139"] ;
352 -> 353 ;
354 [label="gini = 0.0\nsamples = 1\nvalue = [0, 1]\nclass = 1", fillcolor="#399de5"] ;
352 -> 354 ;
355 [label="gini = 0.0\nsamples = 9\nvalue = [0, 9]\nclass = 1", fillcolor="#399de5"] ;
351 -> 355 ;
356 [label="gini = 0.0\nsamples = 1\nvalue = [1, 0]\nclass = 0", fillcolor="#e58139"] ;
268 -> 356 ;
357 [label="gini = 0.0\nsamples = 1\nvalue = [1, 0]\nclass = 0", fillcolor="#e58139"] ;
267 -> 357 ;
358 [label="CLNT_SETUP_TENOR <= -0.72\ngini = 0.26\nsamples = 441\nvalue = [67, 374]\nclass = 1", fillcolor="#5cafea"] ;
266 -> 358 ;
359 [label="CNT_TRAN_SUP_TENDENCY3M <= 0.02\ngini = 0.49\nsamples = 7\nvalue = [3, 4]\nclass = 1", fillcolor="#cee6f8"] ;
358 -> 359 ;
360 [label="CLNT_SETUP_TENOR <= -0.73\ngini = 0.38\nsamples = 4\nvalue = [3, 1]\nclass = 0", fillcolor="#eeab7b"] ;
359 -> 360 ;
361 [label="gini = 0.0\nsamples = 1\nvalue = [0, 1]\nclass = 1", fillcolor="#399de5"] ;
360 -> 361 ;
362 [label="gini = 0.0\nsamples = 3\nvalue = [3, 0]\nclass = 0", fillcolor="#e58139"] ;
360 -> 362 ;
363 [label="gini = 0.0\nsamples = 3\nvalue = [0, 3]\nclass = 1", fillcolor="#399de5"] ;
359 -> 363 ;
364 [label="REST_DYNAMIC_CUR_1M <= 3.29\ngini = 0.25\nsamples = 434\nvalue = [64, 370]\nclass = 1", fillcolor="#5baee9"] ;
358 -> 364 ;
365 [label="REST_DYNAMIC_CUR_1M <= 3.27\ngini = 0.28\nsamples = 328\nvalue = [54, 274]\nclass = 1", fillcolor="#60b0ea"] ;
364 -> 365 ;
366 [label="CLNT_SETUP_TENOR <= 0.58\ngini = 0.27\nsamples = 325\nvalue = [52, 273]\nclass = 1", fillcolor="#5fb0ea"] ;
365 -> 366 ;
367 [label="CNT_TRAN_SUP_TENDENCY3M <= -0.3\ngini = 0.23\nsamples = 203\nvalue = [27, 176]\nclass = 1", fillcolor="#57ace9"] ;
366 -> 367 ;
368 [label="CLNT_SETUP_TENOR <= 0.35\ngini = 0.2\nsamples = 187\nvalue = [21, 166]\nclass = 1", fillcolor="#52a9e8"] ;
367 -> 368 ;
369 [label="CLNT_SETUP_TENOR <= 0.32\ngini = 0.22\nsamples = 166\nvalue = [21, 145]\nclass = 1", fillcolor="#56abe9"] ;
368 -> 369 ;
370 [label="AGE <= -0.23\ngini = 0.21\nsamples = 165\nvalue = [20, 145]\nclass = 1", fillcolor="#54abe9"] ;
369 -> 370 ;
371 [label="REST_DYNAMIC_CUR_1M <= 3.06\ngini = 0.09\nsamples = 40\nvalue = [2, 38]\nclass = 1", fillcolor="#43a2e6"] ;
370 -> 371 ;
372 [label="CLNT_SETUP_TENOR <= -0.61\ngini = 0.05\nsamples = 38\nvalue = [1, 37]\nclass = 1", fillcolor="#3ea0e6"] ;
371 -> 372 ;
373 [label="CLNT_SETUP_TENOR <= -0.62\ngini = 0.38\nsamples = 4\nvalue = [1, 3]\nclass = 1", fillcolor="#7bbeee"] ;
372 -> 373 ;
374 [label="gini = 0.0\nsamples = 3\nvalue = [0, 3]\nclass = 1", fillcolor="#399de5"] ;
373 -> 374 ;
375 [label="gini = 0.0\nsamples = 1\nvalue = [1, 0]\nclass = 0", fillcolor="#e58139"] ;
373 -> 375 ;
376 [label="gini = 0.0\nsamples = 34\nvalue = [0, 34]\nclass = 1", fillcolor="#399de5"] ;
372 -> 376 ;
377 [label="REST_AVG_CUR <= -0.35\ngini = 0.5\nsamples = 2\nvalue = [1, 1]\nclass = 0", fillcolor="#ffffff"] ;
371 -> 377 ;
378 [label="gini = 0.0\nsamples = 1\nvalue = [1, 0]\nclass = 0", fillcolor="#e58139"] ;
377 -> 378 ;
379 [label="gini = 0.0\nsamples = 1\nvalue = [0, 1]\nclass = 1", fillcolor="#399de5"] ;
377 -> 379 ;
380 [label="CLNT_SETUP_TENOR <= -0.31\ngini = 0.25\nsamples = 125\nvalue = [18, 107]\nclass = 1", fillcolor="#5aade9"] ;
370 -> 380 ;
381 [label="REST_AVG_CUR <= -0.35\ngini = 0.16\nsamples = 59\nvalue = [5, 54]\nclass = 1", fillcolor="#4ba6e7"] ;
380 -> 381 ;
382 [label="REST_AVG_PAYM <= -0.13\ngini = 0.1\nsamples = 54\nvalue = [3, 51]\nclass = 1", fillcolor="#45a3e7"] ;
381 -> 382 ;
383 [label="CLNT_SETUP_TENOR <= -0.69\ngini = 0.08\nsamples = 51\nvalue = [2, 49]\nclass = 1", fillcolor="#41a1e6"] ;
382 -> 383 ;
384 [label="CLNT_SETUP_TENOR <= -0.7\ngini = 0.38\nsamples = 4\nvalue = [1, 3]\nclass = 1", fillcolor="#7bbeee"] ;
383 -> 384 ;
385 [label="gini = 0.0\nsamples = 3\nvalue = [0, 3]\nclass = 1", fillcolor="#399de5"] ;
384 -> 385 ;
386 [label="gini = 0.0\nsamples = 1\nvalue = [1, 0]\nclass = 0", fillcolor="#e58139"] ;
384 -> 386 ;
387 [label="REST_AVG_CUR <= -0.35\ngini = 0.04\nsamples = 47\nvalue = [1, 46]\nclass = 1", fillcolor="#3d9fe6"] ;
383 -> 387 ;
388 [label="gini = 0.0\nsamples = 38\nvalue = [0, 38]\nclass = 1", fillcolor="#399de5"] ;
387 -> 388 ;
389 [label="CLNT_SETUP_TENOR <= -0.4\ngini = 0.2\nsamples = 9\nvalue = [1, 8]\nclass = 1", fillcolor="#52a9e8"] ;
387 -> 389 ;
390 [label="gini = 0.0\nsamples = 8\nvalue = [0, 8]\nclass = 1", fillcolor="#399de5"] ;
389 -> 390 ;
391 [label="gini = 0.0\nsamples = 1\nvalue = [1, 0]\nclass = 0", fillcolor="#e58139"] ;
389 -> 391 ;
392 [label="REST_AVG_PAYM <= -0.13\ngini = 0.44\nsamples = 3\nvalue = [1, 2]\nclass = 1", fillcolor="#9ccef2"] ;
382 -> 392 ;
393 [label="gini = 0.0\nsamples = 1\nvalue = [1, 0]\nclass = 0", fillcolor="#e58139"] ;
392 -> 393 ;
394 [label="gini = 0.0\nsamples = 2\nvalue = [0, 2]\nclass = 1", fillcolor="#399de5"] ;
392 -> 394 ;
395 [label="REST_AVG_CUR <= -0.35\ngini = 0.48\nsamples = 5\nvalue = [2, 3]\nclass = 1", fillcolor="#bddef6"] ;
381 -> 395 ;
396 [label="gini = 0.0\nsamples = 2\nvalue = [2, 0]\nclass = 0", fillcolor="#e58139"] ;
395 -> 396 ;
397 [label="gini = 0.0\nsamples = 3\nvalue = [0, 3]\nclass = 1", fillcolor="#399de5"] ;
395 -> 397 ;
398 [label="CLNT_SETUP_TENOR <= -0.26\ngini = 0.32\nsamples = 66\nvalue = [13, 53]\nclass = 1", fillcolor="#6ab5eb"] ;
380 -> 398 ;
399 [label="AGE <= 1.93\ngini = 0.38\nsamples = 4\nvalue = [3, 1]\nclass = 0", fillcolor="#eeab7b"] ;
398 -> 399 ;
400 [label="gini = 0.0\nsamples = 3\nvalue = [3, 0]\nclass = 0", fillcolor="#e58139"] ;
399 -> 400 ;
401 [label="gini = 0.0\nsamples = 1\nvalue = [0, 1]\nclass = 1", fillcolor="#399de5"] ;
399 -> 401 ;
402 [label="REST_AVG_CUR <= -0.35\ngini = 0.27\nsamples = 62\nvalue = [10, 52]\nclass = 1", fillcolor="#5fb0ea"] ;
398 -> 402 ;
403 [label="AGE <= 1.79\ngini = 0.42\nsamples = 33\nvalue = [10, 23]\nclass = 1", fillcolor="#8fc8f0"] ;
402 -> 403 ;
404 [label="REST_AVG_CUR <= -0.35\ngini = 0.4\nsamples = 32\nvalue = [9, 23]\nclass = 1", fillcolor="#86c3ef"] ;
403 -> 404 ;
405 [label="AGE <= 1.13\ngini = 0.38\nsamples = 31\nvalue = [8, 23]\nclass = 1", fillcolor="#7ebfee"] ;
404 -> 405 ;
406 [label="REST_AVG_PAYM <= -0.14\ngini = 0.43\nsamples = 26\nvalue = [8, 18]\nclass = 1", fillcolor="#91c9f1"] ;
405 -> 406 ;
407 [label="CLNT_SETUP_TENOR <= -0.12\ngini = 0.46\nsamples = 22\nvalue = [8, 14]\nclass = 1", fillcolor="#aad5f4"] ;
406 -> 407 ;
408 [label="gini = 0.0\nsamples = 4\nvalue = [0, 4]\nclass = 1", fillcolor="#399de5"] ;
407 -> 408 ;
409 [label="REST_AVG_PAYM <= -0.14\ngini = 0.49\nsamples = 18\nvalue = [8, 10]\nclass = 1", fillcolor="#d7ebfa"] ;
407 -> 409 ;
410 [label="REST_AVG_PAYM <= -0.14\ngini = 0.47\nsamples = 16\nvalue = [6, 10]\nclass = 1", fillcolor="#b0d8f5"] ;
409 -> 410 ;
411 [label="REST_AVG_PAYM <= -0.15\ngini = 0.49\nsamples = 9\nvalue = [5, 4]\nclass = 0", fillcolor="#fae6d7"] ;
410 -> 411 ;
412 [label="REST_AVG_CUR <= -0.35\ngini = 0.44\nsamples = 6\nvalue = [2, 4]\nclass = 1", fillcolor="#9ccef2"] ;
411 -> 412 ;
413 [label="gini = 0.0\nsamples = 3\nvalue = [0, 3]\nclass = 1", fillcolor="#399de5"] ;
412 -> 413 ;
414 [label="REST_DYNAMIC_CUR_1M <= 1.54\ngini = 0.44\nsamples = 3\nvalue = [2, 1]\nclass = 0", fillcolor="#f2c09c"] ;
412 -> 414 ;
415 [label="gini = 0.0\nsamples = 1\nvalue = [0, 1]\nclass = 1", fillcolor="#399de5"] ;
414 -> 415 ;
416 [label="gini = 0.0\nsamples = 2\nvalue = [2, 0]\nclass = 0", fillcolor="#e58139"] ;
414 -> 416 ;
417 [label="gini = 0.0\nsamples = 3\nvalue = [3, 0]\nclass = 0", fillcolor="#e58139"] ;
411 -> 417 ;
418 [label="REST_DYNAMIC_PAYM_3M <= 2.49\ngini = 0.24\nsamples = 7\nvalue = [1, 6]\nclass = 1", fillcolor="#5aade9"] ;
410 -> 418 ;
419 [label="gini = 0.0\nsamples = 1\nvalue = [1, 0]\nclass = 0", fillcolor="#e58139"] ;
418 -> 419 ;
420 [label="gini = 0.0\nsamples = 6\nvalue = [0, 6]\nclass = 1", fillcolor="#399de5"] ;
418 -> 420 ;
421 [label="gini = 0.0\nsamples = 2\nvalue = [2, 0]\nclass = 0", fillcolor="#e58139"] ;
409 -> 421 ;
422 [label="gini = 0.0\nsamples = 4\nvalue = [0, 4]\nclass = 1", fillcolor="#399de5"] ;
406 -> 422 ;
423 [label="gini = 0.0\nsamples = 5\nvalue = [0, 5]\nclass = 1", fillcolor="#399de5"] ;
405 -> 423 ;
424 [label="gini = 0.0\nsamples = 1\nvalue = [1, 0]\nclass = 0", fillcolor="#e58139"] ;
404 -> 424 ;
425 [label="gini = 0.0\nsamples = 1\nvalue = [1, 0]\nclass = 0", fillcolor="#e58139"] ;
403 -> 425 ;
426 [label="gini = 0.0\nsamples = 29\nvalue = [0, 29]\nclass = 1", fillcolor="#399de5"] ;
402 -> 426 ;
427 [label="gini = 0.0\nsamples = 1\nvalue = [1, 0]\nclass = 0", fillcolor="#e58139"] ;
369 -> 427 ;
428 [label="gini = 0.0\nsamples = 21\nvalue = [0, 21]\nclass = 1", fillcolor="#399de5"] ;
368 -> 428 ;
429 [label="CNT_TRAN_SUP_TENDENCY3M <= 0.17\ngini = 0.47\nsamples = 16\nvalue = [6, 10]\nclass = 1", fillcolor="#b0d8f5"] ;
367 -> 429 ;
430 [label="gini = 0.0\nsamples = 1\nvalue = [1, 0]\nclass = 0", fillcolor="#e58139"] ;
429 -> 430 ;
431 [label="CLNT_SETUP_TENOR <= -0.53\ngini = 0.44\nsamples = 15\nvalue = [5, 10]\nclass = 1", fillcolor="#9ccef2"] ;
429 -> 431 ;
432 [label="CLNT_SETUP_TENOR <= -0.6\ngini = 0.48\nsamples = 5\nvalue = [3, 2]\nclass = 0", fillcolor="#f6d5bd"] ;
431 -> 432 ;
433 [label="AGE <= 0.56\ngini = 0.44\nsamples = 3\nvalue = [1, 2]\nclass = 1", fillcolor="#9ccef2"] ;
432 -> 433 ;
434 [label="gini = 0.0\nsamples = 1\nvalue = [1, 0]\nclass = 0", fillcolor="#e58139"] ;
433 -> 434 ;
435 [label="gini = 0.0\nsamples = 2\nvalue = [0, 2]\nclass = 1", fillcolor="#399de5"] ;
433 -> 435 ;
436 [label="gini = 0.0\nsamples = 2\nvalue = [2, 0]\nclass = 0", fillcolor="#e58139"] ;
432 -> 436 ;
437 [label="CLNT_SETUP_TENOR <= -0.16\ngini = 0.32\nsamples = 10\nvalue = [2, 8]\nclass = 1", fillcolor="#6ab6ec"] ;
431 -> 437 ;
438 [label="gini = 0.0\nsamples = 4\nvalue = [0, 4]\nclass = 1", fillcolor="#399de5"] ;
437 -> 438 ;
439 [label="CLNT_SETUP_TENOR <= -0.12\ngini = 0.44\nsamples = 6\nvalue = [2, 4]\nclass = 1", fillcolor="#9ccef2"] ;
437 -> 439 ;
440 [label="gini = 0.0\nsamples = 1\nvalue = [1, 0]\nclass = 0", fillcolor="#e58139"] ;
439 -> 440 ;
441 [label="REST_DYNAMIC_CUR_1M <= 2.01\ngini = 0.32\nsamples = 5\nvalue = [1, 4]\nclass = 1", fillcolor="#6ab6ec"] ;
439 -> 441 ;
442 [label="gini = 0.0\nsamples = 4\nvalue = [0, 4]\nclass = 1", fillcolor="#399de5"] ;
441 -> 442 ;
443 [label="gini = 0.0\nsamples = 1\nvalue = [1, 0]\nclass = 0", fillcolor="#e58139"] ;
441 -> 443 ;
444 [label="CLNT_SETUP_TENOR <= 0.59\ngini = 0.33\nsamples = 122\nvalue = [25, 97]\nclass = 1", fillcolor="#6cb6ec"] ;
366 -> 444 ;
445 [label="gini = 0.0\nsamples = 1\nvalue = [1, 0]\nclass = 0", fillcolor="#e58139"] ;
444 -> 445 ;
446 [label="AGE <= -0.05\ngini = 0.32\nsamples = 121\nvalue = [24, 97]\nclass = 1", fillcolor="#6ab5eb"] ;
444 -> 446 ;
447 [label="CLNT_SETUP_TENOR <= 0.89\ngini = 0.2\nsamples = 52\nvalue = [6, 46]\nclass = 1", fillcolor="#53aae8"] ;
446 -> 447 ;
448 [label="AGE <= -0.32\ngini = 0.44\nsamples = 9\nvalue = [3, 6]\nclass = 1", fillcolor="#9ccef2"] ;
447 -> 448 ;
449 [label="CLNT_SETUP_TENOR <= 0.87\ngini = 0.24\nsamples = 7\nvalue = [1, 6]\nclass = 1", fillcolor="#5aade9"] ;
448 -> 449 ;
450 [label="gini = 0.0\nsamples = 6\nvalue = [0, 6]\nclass = 1", fillcolor="#399de5"] ;
449 -> 450 ;
451 [label="gini = 0.0\nsamples = 1\nvalue = [1, 0]\nclass = 0", fillcolor="#e58139"] ;
449 -> 451 ;
452 [label="gini = 0.0\nsamples = 2\nvalue = [2, 0]\nclass = 0", fillcolor="#e58139"] ;
448 -> 452 ;
453 [label="REST_AVG_PAYM <= -0.14\ngini = 0.13\nsamples = 43\nvalue = [3, 40]\nclass = 1", fillcolor="#48a4e7"] ;
447 -> 453 ;
454 [label="REST_AVG_PAYM <= -0.15\ngini = 0.21\nsamples = 25\nvalue = [3, 22]\nclass = 1", fillcolor="#54aae9"] ;
453 -> 454 ;
455 [label="REST_AVG_CUR <= -0.35\ngini = 0.15\nsamples = 24\nvalue = [2, 22]\nclass = 1", fillcolor="#4ba6e7"] ;
454 -> 455 ;
456 [label="CNT_TRAN_ATM_TENDENCY3M <= -0.7\ngini = 0.41\nsamples = 7\nvalue = [2, 5]\nclass = 1", fillcolor="#88c4ef"] ;
455 -> 456 ;
457 [label="gini = 0.0\nsamples = 5\nvalue = [0, 5]\nclass = 1", fillcolor="#399de5"] ;
456 -> 457 ;
458 [label="gini = 0.0\nsamples = 2\nvalue = [2, 0]\nclass = 0", fillcolor="#e58139"] ;
456 -> 458 ;
459 [label="gini = 0.0\nsamples = 17\nvalue = [0, 17]\nclass = 1", fillcolor="#399de5"] ;
455 -> 459 ;
460 [label="gini = 0.0\nsamples = 1\nvalue = [1, 0]\nclass = 0", fillcolor="#e58139"] ;
454 -> 460 ;
461 [label="gini = 0.0\nsamples = 18\nvalue = [0, 18]\nclass = 1", fillcolor="#399de5"] ;
453 -> 461 ;
462 [label="AGE <= 1.22\ngini = 0.39\nsamples = 69\nvalue = [18, 51]\nclass = 1", fillcolor="#7fc0ee"] ;
446 -> 462 ;
463 [label="REST_DYNAMIC_PAYM_3M <= 2.14\ngini = 0.45\nsamples = 49\nvalue = [17.0, 32.0]\nclass = 1", fillcolor="#a2d1f3"] ;
462 -> 463 ;
464 [label="REST_AVG_PAYM <= -0.15\ngini = 0.48\nsamples = 42\nvalue = [17, 25]\nclass = 1", fillcolor="#c0e0f7"] ;
463 -> 464 ;
465 [label="REST_DYNAMIC_CUR_1M <= 1.34\ngini = 0.47\nsamples = 40\nvalue = [15, 25]\nclass = 1", fillcolor="#b0d8f5"] ;
464 -> 465 ;
466 [label="REST_AVG_CUR <= -0.35\ngini = 0.42\nsamples = 30\nvalue = [9, 21]\nclass = 1", fillcolor="#8ec7f0"] ;
465 -> 466 ;
467 [label="REST_DYNAMIC_CC_1M <= -0.08\ngini = 0.5\nsamples = 11\nvalue = [6, 5]\nclass = 0", fillcolor="#fbeade"] ;
466 -> 467 ;
468 [label="REST_DYNAMIC_IL_1M <= -0.06\ngini = 0.38\nsamples = 8\nvalue = [6, 2]\nclass = 0", fillcolor="#eeab7b"] ;
467 -> 468 ;
469 [label="CLNT_SETUP_TENOR <= 2.02\ngini = 0.24\nsamples = 7\nvalue = [6, 1]\nclass = 0", fillcolor="#e9965a"] ;
468 -> 469 ;
470 [label="gini = 0.0\nsamples = 6\nvalue = [6, 0]\nclass = 0", fillcolor="#e58139"] ;
469 -> 470 ;
471 [label="gini = 0.0\nsamples = 1\nvalue = [0, 1]\nclass = 1", fillcolor="#399de5"] ;
469 -> 471 ;
472 [label="gini = 0.0\nsamples = 1\nvalue = [0, 1]\nclass = 1", fillcolor="#399de5"] ;
468 -> 472 ;
473 [label="gini = 0.0\nsamples = 3\nvalue = [0, 3]\nclass = 1", fillcolor="#399de5"] ;
467 -> 473 ;
474 [label="AGE <= 0.3\ngini = 0.27\nsamples = 19\nvalue = [3, 16]\nclass = 1", fillcolor="#5eafea"] ;
466 -> 474 ;
475 [label="CLNT_SETUP_TENOR <= 1.13\ngini = 0.49\nsamples = 7\nvalue = [3, 4]\nclass = 1", fillcolor="#cee6f8"] ;
474 -> 475 ;
476 [label="REST_AVG_CUR <= -0.35\ngini = 0.32\nsamples = 5\nvalue = [1, 4]\nclass = 1", fillcolor="#6ab6ec"] ;
475 -> 476 ;
477 [label="gini = 0.0\nsamples = 4\nvalue = [0, 4]\nclass = 1", fillcolor="#399de5"] ;
476 -> 477 ;
478 [label="gini = 0.0\nsamples = 1\nvalue = [1, 0]\nclass = 0", fillcolor="#e58139"] ;
476 -> 478 ;
479 [label="gini = 0.0\nsamples = 2\nvalue = [2, 0]\nclass = 0", fillcolor="#e58139"] ;
475 -> 479 ;
480 [label="gini = 0.0\nsamples = 12\nvalue = [0, 12]\nclass = 1", fillcolor="#399de5"] ;
474 -> 480 ;
481 [label="REST_DYNAMIC_CUR_1M <= 2.89\ngini = 0.48\nsamples = 10\nvalue = [6, 4]\nclass = 0", fillcolor="#f6d5bd"] ;
465 -> 481 ;
482 [label="CLNT_SETUP_TENOR <= 0.82\ngini = 0.24\nsamples = 7\nvalue = [6, 1]\nclass = 0", fillcolor="#e9965a"] ;
481 -> 482 ;
483 [label="gini = 0.0\nsamples = 1\nvalue = [0, 1]\nclass = 1", fillcolor="#399de5"] ;
482 -> 483 ;
484 [label="gini = 0.0\nsamples = 6\nvalue = [6, 0]\nclass = 0", fillcolor="#e58139"] ;
482 -> 484 ;
485 [label="gini = 0.0\nsamples = 3\nvalue = [0, 3]\nclass = 1", fillcolor="#399de5"] ;
481 -> 485 ;
486 [label="gini = 0.0\nsamples = 2\nvalue = [2, 0]\nclass = 0", fillcolor="#e58139"] ;
464 -> 486 ;
487 [label="gini = 0.0\nsamples = 7\nvalue = [0, 7]\nclass = 1", fillcolor="#399de5"] ;
463 -> 487 ;
488 [label="REST_AVG_PAYM <= -0.14\ngini = 0.09\nsamples = 20\nvalue = [1, 19]\nclass = 1", fillcolor="#43a2e6"] ;
462 -> 488 ;
489 [label="gini = 0.0\nsamples = 19\nvalue = [0, 19]\nclass = 1", fillcolor="#399de5"] ;
488 -> 489 ;
490 [label="gini = 0.0\nsamples = 1\nvalue = [1, 0]\nclass = 0", fillcolor="#e58139"] ;
488 -> 490 ;
491 [label="CNT_TRAN_SUP_TENDENCY3M <= 0.02\ngini = 0.44\nsamples = 3\nvalue = [2, 1]\nclass = 0", fillcolor="#f2c09c"] ;
365 -> 491 ;
492 [label="gini = 0.0\nsamples = 2\nvalue = [2, 0]\nclass = 0", fillcolor="#e58139"] ;
491 -> 492 ;
493 [label="gini = 0.0\nsamples = 1\nvalue = [0, 1]\nclass = 1", fillcolor="#399de5"] ;
491 -> 493 ;
494 [label="AGE <= -0.49\ngini = 0.17\nsamples = 106\nvalue = [10, 96]\nclass = 1", fillcolor="#4ea7e8"] ;
364 -> 494 ;
495 [label="CLNT_SETUP_TENOR <= 0.86\ngini = 0.44\nsamples = 6\nvalue = [2, 4]\nclass = 1", fillcolor="#9ccef2"] ;
494 -> 495 ;
496 [label="gini = 0.0\nsamples = 3\nvalue = [0, 3]\nclass = 1", fillcolor="#399de5"] ;
495 -> 496 ;
497 [label="CLNT_SETUP_TENOR <= 1.65\ngini = 0.44\nsamples = 3\nvalue = [2, 1]\nclass = 0", fillcolor="#f2c09c"] ;
495 -> 497 ;
498 [label="gini = 0.0\nsamples = 2\nvalue = [2, 0]\nclass = 0", fillcolor="#e58139"] ;
497 -> 498 ;
499 [label="gini = 0.0\nsamples = 1\nvalue = [0, 1]\nclass = 1", fillcolor="#399de5"] ;
497 -> 499 ;
500 [label="CNT_TRAN_SUP_TENDENCY3M <= -1.55\ngini = 0.15\nsamples = 100\nvalue = [8, 92]\nclass = 1", fillcolor="#4aa6e7"] ;
494 -> 500 ;
501 [label="AGE <= 0.12\ngini = 0.5\nsamples = 2\nvalue = [1, 1]\nclass = 0", fillcolor="#ffffff"] ;
500 -> 501 ;
502 [label="gini = 0.0\nsamples = 1\nvalue = [0, 1]\nclass = 1", fillcolor="#399de5"] ;
501 -> 502 ;
503 [label="gini = 0.0\nsamples = 1\nvalue = [1, 0]\nclass = 0", fillcolor="#e58139"] ;
501 -> 503 ;
504 [label="CLNT_SETUP_TENOR <= 1.04\ngini = 0.13\nsamples = 98\nvalue = [7, 91]\nclass = 1", fillcolor="#48a5e7"] ;
500 -> 504 ;
505 [label="CLNT_SETUP_TENOR <= 1.0\ngini = 0.2\nsamples = 63\nvalue = [7, 56]\nclass = 1", fillcolor="#52a9e8"] ;
504 -> 505 ;
506 [label="AGE <= 2.15\ngini = 0.17\nsamples = 62\nvalue = [6, 56]\nclass = 1", fillcolor="#4ea8e8"] ;
505 -> 506 ;
507 [label="REST_AVG_CUR <= -0.35\ngini = 0.15\nsamples = 61\nvalue = [5, 56]\nclass = 1", fillcolor="#4ba6e7"] ;
506 -> 507 ;
508 [label="REST_AVG_CUR <= -0.35\ngini = 0.05\nsamples = 39\nvalue = [1, 38]\nclass = 1", fillcolor="#3ea0e6"] ;
507 -> 508 ;
509 [label="CLNT_SETUP_TENOR <= -0.27\ngini = 0.28\nsamples = 6\nvalue = [1, 5]\nclass = 1", fillcolor="#61b1ea"] ;
508 -> 509 ;
510 [label="CLNT_SETUP_TENOR <= -0.34\ngini = 0.5\nsamples = 2\nvalue = [1, 1]\nclass = 0", fillcolor="#ffffff"] ;
509 -> 510 ;
511 [label="gini = 0.0\nsamples = 1\nvalue = [0, 1]\nclass = 1", fillcolor="#399de5"] ;
510 -> 511 ;
512 [label="gini = 0.0\nsamples = 1\nvalue = [1, 0]\nclass = 0", fillcolor="#e58139"] ;
510 -> 512 ;
513 [label="gini = 0.0\nsamples = 4\nvalue = [0, 4]\nclass = 1", fillcolor="#399de5"] ;
509 -> 513 ;
514 [label="gini = 0.0\nsamples = 33\nvalue = [0, 33]\nclass = 1", fillcolor="#399de5"] ;
508 -> 514 ;
515 [label="REST_AVG_CUR <= -0.35\ngini = 0.3\nsamples = 22\nvalue = [4, 18]\nclass = 1", fillcolor="#65b3eb"] ;
507 -> 515 ;
516 [label="gini = 0.0\nsamples = 1\nvalue = [1, 0]\nclass = 0", fillcolor="#e58139"] ;
515 -> 516 ;
517 [label="CLNT_SETUP_TENOR <= -0.63\ngini = 0.24\nsamples = 21\nvalue = [3, 18]\nclass = 1", fillcolor="#5aade9"] ;
515 -> 517 ;
518 [label="gini = 0.0\nsamples = 1\nvalue = [1, 0]\nclass = 0", fillcolor="#e58139"] ;
517 -> 518 ;
519 [label="AGE <= 0.69\ngini = 0.18\nsamples = 20\nvalue = [2, 18]\nclass = 1", fillcolor="#4fa8e8"] ;
517 -> 519 ;
520 [label="gini = 0.0\nsamples = 13\nvalue = [0, 13]\nclass = 1", fillcolor="#399de5"] ;
519 -> 520 ;
521 [label="CNT_TRAN_SUP_TENDENCY3M <= 0.02\ngini = 0.41\nsamples = 7\nvalue = [2, 5]\nclass = 1", fillcolor="#88c4ef"] ;
519 -> 521 ;
522 [label="gini = 0.0\nsamples = 4\nvalue = [0, 4]\nclass = 1", fillcolor="#399de5"] ;
521 -> 522 ;
523 [label="REST_AVG_CUR <= -0.35\ngini = 0.44\nsamples = 3\nvalue = [2, 1]\nclass = 0", fillcolor="#f2c09c"] ;
521 -> 523 ;
524 [label="gini = 0.0\nsamples = 1\nvalue = [0, 1]\nclass = 1", fillcolor="#399de5"] ;
523 -> 524 ;
525 [label="gini = 0.0\nsamples = 2\nvalue = [2, 0]\nclass = 0", fillcolor="#e58139"] ;
523 -> 525 ;
526 [label="gini = 0.0\nsamples = 1\nvalue = [1, 0]\nclass = 0", fillcolor="#e58139"] ;
506 -> 526 ;
527 [label="gini = 0.0\nsamples = 1\nvalue = [1, 0]\nclass = 0", fillcolor="#e58139"] ;
505 -> 527 ;
528 [label="gini = 0.0\nsamples = 35\nvalue = [0, 35]\nclass = 1", fillcolor="#399de5"] ;
504 -> 528 ;
529 [label="REST_AVG_PAYM <= -0.13\ngini = 0.35\nsamples = 44\nvalue = [10, 34]\nclass = 1", fillcolor="#73baed"] ;
265 -> 529 ;
530 [label="REST_DYNAMIC_PAYM_3M <= 2.67\ngini = 0.47\nsamples = 24\nvalue = [9, 15]\nclass = 1", fillcolor="#b0d8f5"] ;
529 -> 530 ;
531 [label="REST_AVG_PAYM <= -0.13\ngini = 0.26\nsamples = 13\nvalue = [2, 11]\nclass = 1", fillcolor="#5dafea"] ;
530 -> 531 ;
532 [label="PACK_105 <= 1.12\ngini = 0.44\nsamples = 3\nvalue = [2, 1]\nclass = 0", fillcolor="#f2c09c"] ;
531 -> 532 ;
533 [label="gini = 0.0\nsamples = 1\nvalue = [0, 1]\nclass = 1", fillcolor="#399de5"] ;
532 -> 533 ;
534 [label="gini = 0.0\nsamples = 2\nvalue = [2, 0]\nclass = 0", fillcolor="#e58139"] ;
532 -> 534 ;
535 [label="gini = 0.0\nsamples = 10\nvalue = [0, 10]\nclass = 1", fillcolor="#399de5"] ;
531 -> 535 ;
536 [label="REST_DYNAMIC_PAYM_3M <= 4.52\ngini = 0.46\nsamples = 11\nvalue = [7, 4]\nclass = 0", fillcolor="#f4c9aa"] ;
530 -> 536 ;
537 [label="gini = 0.0\nsamples = 7\nvalue = [7, 0]\nclass = 0", fillcolor="#e58139"] ;
536 -> 537 ;
538 [label="gini = 0.0\nsamples = 4\nvalue = [0, 4]\nclass = 1", fillcolor="#399de5"] ;
536 -> 538 ;
539 [label="REST_DYNAMIC_PAYM_3M <= 1.66\ngini = 0.09\nsamples = 20\nvalue = [1, 19]\nclass = 1", fillcolor="#43a2e6"] ;
529 -> 539 ;
540 [label="REST_DYNAMIC_PAYM_3M <= 1.43\ngini = 0.38\nsamples = 4\nvalue = [1, 3]\nclass = 1", fillcolor="#7bbeee"] ;
539 -> 540 ;
541 [label="gini = 0.0\nsamples = 3\nvalue = [0, 3]\nclass = 1", fillcolor="#399de5"] ;
540 -> 541 ;
542 [label="gini = 0.0\nsamples = 1\nvalue = [1, 0]\nclass = 0", fillcolor="#e58139"] ;
540 -> 542 ;
543 [label="gini = 0.0\nsamples = 16\nvalue = [0, 16]\nclass = 1", fillcolor="#399de5"] ;
539 -> 543 ;
544 [label="REST_DYNAMIC_IL_1M <= 0.0\ngini = 0.06\nsamples = 35\nvalue = [1, 34]\nclass = 1", fillcolor="#3fa0e6"] ;
264 -> 544 ;
545 [label="gini = 0.0\nsamples = 33\nvalue = [0, 33]\nclass = 1", fillcolor="#399de5"] ;
544 -> 545 ;
546 [label="AGE <= 1.93\ngini = 0.5\nsamples = 2\nvalue = [1, 1]\nclass = 0", fillcolor="#ffffff"] ;
544 -> 546 ;
547 [label="gini = 0.0\nsamples = 1\nvalue = [1, 0]\nclass = 0", fillcolor="#e58139"] ;
546 -> 547 ;
548 [label="gini = 0.0\nsamples = 1\nvalue = [0, 1]\nclass = 1", fillcolor="#399de5"] ;
546 -> 548 ;
549 [label="gini = 0.0\nsamples = 1\nvalue = [1, 0]\nclass = 0", fillcolor="#e58139"] ;
263 -> 549 ;
550 [label="gini = 0.0\nsamples = 25\nvalue = [0, 25]\nclass = 1", fillcolor="#399de5"] ;
262 -> 550 ;
551 [label="REST_DYNAMIC_CUR_1M <= 1.63\ngini = 0.5\nsamples = 2\nvalue = [1, 1]\nclass = 0", fillcolor="#ffffff"] ;
49 -> 551 ;
552 [label="gini = 0.0\nsamples = 1\nvalue = [0, 1]\nclass = 1", fillcolor="#399de5"] ;
551 -> 552 ;
553 [label="gini = 0.0\nsamples = 1\nvalue = [1, 0]\nclass = 0", fillcolor="#e58139"] ;
551 -> 553 ;
554 [label="REST_AVG_CUR <= -0.35\ngini = 0.49\nsamples = 14\nvalue = [6, 8]\nclass = 1", fillcolor="#cee6f8"] ;
14 -> 554 ;
555 [label="REST_AVG_CUR <= -0.35\ngini = 0.41\nsamples = 7\nvalue = [5, 2]\nclass = 0", fillcolor="#efb388"] ;
554 -> 555 ;
556 [label="REST_AVG_CUR <= -0.35\ngini = 0.44\nsamples = 3\nvalue = [1, 2]\nclass = 1", fillcolor="#9ccef2"] ;
555 -> 556 ;
557 [label="gini = 0.0\nsamples = 1\nvalue = [1, 0]\nclass = 0", fillcolor="#e58139"] ;
556 -> 557 ;
558 [label="gini = 0.0\nsamples = 2\nvalue = [0, 2]\nclass = 1", fillcolor="#399de5"] ;
556 -> 558 ;
559 [label="gini = 0.0\nsamples = 4\nvalue = [4, 0]\nclass = 0", fillcolor="#e58139"] ;
555 -> 559 ;
560 [label="AGE <= 1.13\ngini = 0.24\nsamples = 7\nvalue = [1, 6]\nclass = 1", fillcolor="#5aade9"] ;
554 -> 560 ;
561 [label="gini = 0.0\nsamples = 6\nvalue = [0, 6]\nclass = 1", fillcolor="#399de5"] ;
560 -> 561 ;
562 [label="gini = 0.0\nsamples = 1\nvalue = [1, 0]\nclass = 0", fillcolor="#e58139"] ;
560 -> 562 ;
563 [label="CLNT_SETUP_TENOR <= -0.52\ngini = 0.06\nsamples = 64\nvalue = [2, 62]\nclass = 1", fillcolor="#3fa0e6"] ;
13 -> 563 ;
564 [label="gini = 0.0\nsamples = 37\nvalue = [0, 37]\nclass = 1", fillcolor="#399de5"] ;
563 -> 564 ;
565 [label="CLNT_SETUP_TENOR <= -0.5\ngini = 0.14\nsamples = 27\nvalue = [2, 25]\nclass = 1", fillcolor="#49a5e7"] ;
563 -> 565 ;
566 [label="gini = 0.0\nsamples = 1\nvalue = [1, 0]\nclass = 0", fillcolor="#e58139"] ;
565 -> 566 ;
567 [label="AGE <= -0.67\ngini = 0.07\nsamples = 26\nvalue = [1, 25]\nclass = 1", fillcolor="#41a1e6"] ;
565 -> 567 ;
568 [label="TRANS_COUNT_ATM_PRC <= 0.03\ngini = 0.28\nsamples = 6\nvalue = [1, 5]\nclass = 1", fillcolor="#61b1ea"] ;
567 -> 568 ;
569 [label="gini = 0.0\nsamples = 1\nvalue = [1, 0]\nclass = 0", fillcolor="#e58139"] ;
568 -> 569 ;
570 [label="gini = 0.0\nsamples = 5\nvalue = [0, 5]\nclass = 1", fillcolor="#399de5"] ;
568 -> 570 ;
571 [label="gini = 0.0\nsamples = 20\nvalue = [0, 20]\nclass = 1", fillcolor="#399de5"] ;
567 -> 571 ;
572 [label="AGE <= 0.12\ngini = 0.3\nsamples = 358\nvalue = [65, 293]\nclass = 1", fillcolor="#65b3eb"] ;
12 -> 572 ;
573 [label="AGE <= -1.11\ngini = 0.36\nsamples = 243\nvalue = [57, 186]\nclass = 1", fillcolor="#76bbed"] ;
572 -> 573 ;
574 [label="AGE <= -1.85\ngini = 0.12\nsamples = 47\nvalue = [3.0, 44.0]\nclass = 1", fillcolor="#46a4e7"] ;
573 -> 574 ;
575 [label="gini = 0.0\nsamples = 1\nvalue = [1, 0]\nclass = 0", fillcolor="#e58139"] ;
574 -> 575 ;
576 [label="REST_AVG_CUR <= -0.35\ngini = 0.08\nsamples = 46\nvalue = [2, 44]\nclass = 1", fillcolor="#42a1e6"] ;
574 -> 576 ;
577 [label="REST_AVG_CUR <= -0.35\ngini = 0.41\nsamples = 7\nvalue = [2, 5]\nclass = 1", fillcolor="#88c4ef"] ;
576 -> 577 ;
578 [label="REST_AVG_CUR <= -0.35\ngini = 0.28\nsamples = 6\nvalue = [1, 5]\nclass = 1", fillcolor="#61b1ea"] ;
577 -> 578 ;
579 [label="REST_DYNAMIC_PAYM_3M <= 1.14\ngini = 0.5\nsamples = 2\nvalue = [1, 1]\nclass = 0", fillcolor="#ffffff"] ;
578 -> 579 ;
580 [label="gini = 0.0\nsamples = 1\nvalue = [1, 0]\nclass = 0", fillcolor="#e58139"] ;
579 -> 580 ;
581 [label="gini = 0.0\nsamples = 1\nvalue = [0, 1]\nclass = 1", fillcolor="#399de5"] ;
579 -> 581 ;
582 [label="gini = 0.0\nsamples = 4\nvalue = [0, 4]\nclass = 1", fillcolor="#399de5"] ;
578 -> 582 ;
583 [label="gini = 0.0\nsamples = 1\nvalue = [1, 0]\nclass = 0", fillcolor="#e58139"] ;
577 -> 583 ;
584 [label="gini = 0.0\nsamples = 39\nvalue = [0, 39]\nclass = 1", fillcolor="#399de5"] ;
576 -> 584 ;
585 [label="REST_AVG_CUR <= -0.35\ngini = 0.4\nsamples = 196\nvalue = [54.0, 142.0]\nclass = 1", fillcolor="#84c2ef"] ;
573 -> 585 ;
586 [label="AGE <= 0.04\ngini = 0.2\nsamples = 45\nvalue = [5, 40]\nclass = 1", fillcolor="#52a9e8"] ;
585 -> 586 ;
587 [label="CLNT_SETUP_TENOR <= -1.36\ngini = 0.17\nsamples = 44\nvalue = [4, 40]\nclass = 1", fillcolor="#4da7e8"] ;
586 -> 587 ;
588 [label="gini = 0.0\nsamples = 1\nvalue = [1, 0]\nclass = 0", fillcolor="#e58139"] ;
587 -> 588 ;
589 [label="CLNT_SETUP_TENOR <= -1.32\ngini = 0.13\nsamples = 43\nvalue = [3, 40]\nclass = 1", fillcolor="#48a4e7"] ;
587 -> 589 ;
590 [label="CLNT_SETUP_TENOR <= -1.33\ngini = 0.41\nsamples = 7\nvalue = [2, 5]\nclass = 1", fillcolor="#88c4ef"] ;
589 -> 590 ;
591 [label="gini = 0.0\nsamples = 4\nvalue = [0, 4]\nclass = 1", fillcolor="#399de5"] ;
590 -> 591 ;
592 [label="AGE <= -0.49\ngini = 0.44\nsamples = 3\nvalue = [2, 1]\nclass = 0", fillcolor="#f2c09c"] ;
590 -> 592 ;
593 [label="gini = 0.0\nsamples = 2\nvalue = [2, 0]\nclass = 0", fillcolor="#e58139"] ;
592 -> 593 ;
594 [label="gini = 0.0\nsamples = 1\nvalue = [0, 1]\nclass = 1", fillcolor="#399de5"] ;
592 -> 594 ;
595 [label="REST_AVG_PAYM <= -0.14\ngini = 0.05\nsamples = 36\nvalue = [1, 35]\nclass = 1", fillcolor="#3fa0e6"] ;
589 -> 595 ;
596 [label="gini = 0.0\nsamples = 33\nvalue = [0, 33]\nclass = 1", fillcolor="#399de5"] ;
595 -> 596 ;
597 [label="REST_AVG_PAYM <= -0.14\ngini = 0.44\nsamples = 3\nvalue = [1, 2]\nclass = 1", fillcolor="#9ccef2"] ;
595 -> 597 ;
598 [label="gini = 0.0\nsamples = 1\nvalue = [1, 0]\nclass = 0", fillcolor="#e58139"] ;
597 -> 598 ;
599 [label="gini = 0.0\nsamples = 2\nvalue = [0, 2]\nclass = 1", fillcolor="#399de5"] ;
597 -> 599 ;
600 [label="gini = 0.0\nsamples = 1\nvalue = [1, 0]\nclass = 0", fillcolor="#e58139"] ;
586 -> 600 ;
601 [label="REST_DYNAMIC_CUR_1M <= 2.74\ngini = 0.44\nsamples = 151\nvalue = [49, 102]\nclass = 1", fillcolor="#98ccf1"] ;
585 -> 601 ;
602 [label="CLNT_SETUP_TENOR <= -0.97\ngini = 0.35\nsamples = 92\nvalue = [21, 71]\nclass = 1", fillcolor="#74baed"] ;
601 -> 602 ;
603 [label="CLNT_SETUP_TENOR <= -1.1\ngini = 0.42\nsamples = 56\nvalue = [17, 39]\nclass = 1", fillcolor="#8fc8f0"] ;
602 -> 603 ;
604 [label="CLNT_SETUP_TENOR <= -1.32\ngini = 0.4\nsamples = 54\nvalue = [15, 39]\nclass = 1", fillcolor="#85c3ef"] ;
603 -> 604 ;
605 [label="REST_AVG_CUR <= -0.35\ngini = 0.48\nsamples = 5\nvalue = [3, 2]\nclass = 0", fillcolor="#f6d5bd"] ;
604 -> 605 ;
606 [label="gini = 0.0\nsamples = 3\nvalue = [3, 0]\nclass = 0", fillcolor="#e58139"] ;
605 -> 606 ;
607 [label="gini = 0.0\nsamples = 2\nvalue = [0, 2]\nclass = 1", fillcolor="#399de5"] ;
605 -> 607 ;
608 [label="REST_AVG_CUR <= -0.34\ngini = 0.37\nsamples = 49\nvalue = [12, 37]\nclass = 1", fillcolor="#79bded"] ;
604 -> 608 ;
609 [label="REST_DYNAMIC_CUR_1M <= 0.73\ngini = 0.35\nsamples = 48\nvalue = [11, 37]\nclass = 1", fillcolor="#74baed"] ;
608 -> 609 ;
610 [label="CLNT_SETUP_TENOR <= -1.28\ngini = 0.49\nsamples = 12\nvalue = [5, 7]\nclass = 1", fillcolor="#c6e3f8"] ;
609 -> 610 ;
611 [label="gini = 0.0\nsamples = 4\nvalue = [4, 0]\nclass = 0", fillcolor="#e58139"] ;
610 -> 611 ;
612 [label="AGE <= -0.89\ngini = 0.22\nsamples = 8\nvalue = [1, 7]\nclass = 1", fillcolor="#55abe9"] ;
610 -> 612 ;
613 [label="REST_AVG_CUR <= -0.35\ngini = 0.5\nsamples = 2\nvalue = [1, 1]\nclass = 0", fillcolor="#ffffff"] ;
612 -> 613 ;
614 [label="gini = 0.0\nsamples = 1\nvalue = [0, 1]\nclass = 1", fillcolor="#399de5"] ;
613 -> 614 ;
615 [label="gini = 0.0\nsamples = 1\nvalue = [1, 0]\nclass = 0", fillcolor="#e58139"] ;
613 -> 615 ;
616 [label="gini = 0.0\nsamples = 6\nvalue = [0, 6]\nclass = 1", fillcolor="#399de5"] ;
612 -> 616 ;
617 [label="CLNT_SETUP_TENOR <= -1.26\ngini = 0.28\nsamples = 36\nvalue = [6, 30]\nclass = 1", fillcolor="#61b1ea"] ;
609 -> 617 ;
618 [label="CLNT_SETUP_TENOR <= -1.3\ngini = 0.19\nsamples = 29\nvalue = [3, 26]\nclass = 1", fillcolor="#50a8e8"] ;
617 -> 618 ;
619 [label="REST_AVG_CUR <= -0.35\ngini = 0.36\nsamples = 13\nvalue = [3, 10]\nclass = 1", fillcolor="#74baed"] ;
618 -> 619 ;
620 [label="gini = 0.0\nsamples = 7\nvalue = [0, 7]\nclass = 1", fillcolor="#399de5"] ;
619 -> 620 ;
621 [label="REST_AVG_CUR <= -0.35\ngini = 0.5\nsamples = 6\nvalue = [3, 3]\nclass = 0", fillcolor="#ffffff"] ;
619 -> 621 ;
622 [label="gini = 0.0\nsamples = 2\nvalue = [2, 0]\nclass = 0", fillcolor="#e58139"] ;
621 -> 622 ;
623 [label="CLNT_SETUP_TENOR <= -1.3\ngini = 0.38\nsamples = 4\nvalue = [1, 3]\nclass = 1", fillcolor="#7bbeee"] ;
621 -> 623 ;
624 [label="gini = 0.0\nsamples = 3\nvalue = [0, 3]\nclass = 1", fillcolor="#399de5"] ;
623 -> 624 ;
625 [label="gini = 0.0\nsamples = 1\nvalue = [1, 0]\nclass = 0", fillcolor="#e58139"] ;
623 -> 625 ;
626 [label="gini = 0.0\nsamples = 16\nvalue = [0, 16]\nclass = 1", fillcolor="#399de5"] ;
618 -> 626 ;
627 [label="REST_DYNAMIC_CUR_1M <= 1.51\ngini = 0.49\nsamples = 7\nvalue = [3, 4]\nclass = 1", fillcolor="#cee6f8"] ;
617 -> 627 ;
628 [label="gini = 0.0\nsamples = 2\nvalue = [2, 0]\nclass = 0", fillcolor="#e58139"] ;
627 -> 628 ;
629 [label="AGE <= -0.49\ngini = 0.32\nsamples = 5\nvalue = [1, 4]\nclass = 1", fillcolor="#6ab6ec"] ;
627 -> 629 ;
630 [label="gini = 0.0\nsamples = 4\nvalue = [0, 4]\nclass = 1", fillcolor="#399de5"] ;
629 -> 630 ;
631 [label="gini = 0.0\nsamples = 1\nvalue = [1, 0]\nclass = 0", fillcolor="#e58139"] ;
629 -> 631 ;
632 [label="gini = 0.0\nsamples = 1\nvalue = [1, 0]\nclass = 0", fillcolor="#e58139"] ;
608 -> 632 ;
633 [label="gini = 0.0\nsamples = 2\nvalue = [2, 0]\nclass = 0", fillcolor="#e58139"] ;
603 -> 633 ;
634 [label="REST_AVG_CUR <= -0.35\ngini = 0.2\nsamples = 36\nvalue = [4, 32]\nclass = 1", fillcolor="#52a9e8"] ;
602 -> 634 ;
635 [label="gini = 0.0\nsamples = 29\nvalue = [0, 29]\nclass = 1", fillcolor="#399de5"] ;
634 -> 635 ;
636 [label="REST_AVG_CUR <= -0.34\ngini = 0.49\nsamples = 7\nvalue = [4, 3]\nclass = 0", fillcolor="#f8e0ce"] ;
634 -> 636 ;
637 [label="REST_DYNAMIC_CUR_1M <= 0.3\ngini = 0.32\nsamples = 5\nvalue = [4, 1]\nclass = 0", fillcolor="#eca06a"] ;
636 -> 637 ;
638 [label="gini = 0.0\nsamples = 1\nvalue = [0, 1]\nclass = 1", fillcolor="#399de5"] ;
637 -> 638 ;
639 [label="gini = 0.0\nsamples = 4\nvalue = [4, 0]\nclass = 0", fillcolor="#e58139"] ;
637 -> 639 ;
640 [label="gini = 0.0\nsamples = 2\nvalue = [0, 2]\nclass = 1", fillcolor="#399de5"] ;
636 -> 640 ;
641 [label="REST_DYNAMIC_CUR_1M <= 3.32\ngini = 0.5\nsamples = 59\nvalue = [28.0, 31.0]\nclass = 1", fillcolor="#ecf6fc"] ;
601 -> 641 ;
642 [label="CLNT_SETUP_TENOR <= -1.33\ngini = 0.24\nsamples = 14\nvalue = [12, 2]\nclass = 0", fillcolor="#e9965a"] ;
641 -> 642 ;
643 [label="gini = 0.0\nsamples = 1\nvalue = [0, 1]\nclass = 1", fillcolor="#399de5"] ;
642 -> 643 ;
644 [label="REST_AVG_CUR <= -0.35\ngini = 0.14\nsamples = 13\nvalue = [12, 1]\nclass = 0", fillcolor="#e78c49"] ;
642 -> 644 ;
645 [label="gini = 0.0\nsamples = 10\nvalue = [10, 0]\nclass = 0", fillcolor="#e58139"] ;
644 -> 645 ;
646 [label="REST_AVG_CUR <= -0.35\ngini = 0.44\nsamples = 3\nvalue = [2, 1]\nclass = 0", fillcolor="#f2c09c"] ;
644 -> 646 ;
647 [label="gini = 0.0\nsamples = 1\nvalue = [0, 1]\nclass = 1", fillcolor="#399de5"] ;
646 -> 647 ;
648 [label="gini = 0.0\nsamples = 2\nvalue = [2, 0]\nclass = 0", fillcolor="#e58139"] ;
646 -> 648 ;
649 [label="REST_AVG_CUR <= -0.35\ngini = 0.46\nsamples = 45\nvalue = [16.0, 29.0]\nclass = 1", fillcolor="#a6d3f3"] ;
641 -> 649 ;
650 [label="AGE <= -0.4\ngini = 0.44\nsamples = 43\nvalue = [14.0, 29.0]\nclass = 1", fillcolor="#99ccf2"] ;
649 -> 650 ;
651 [label="CLNT_SETUP_TENOR <= 1.18\ngini = 0.48\nsamples = 30\nvalue = [12, 18]\nclass = 1", fillcolor="#bddef6"] ;
650 -> 651 ;
652 [label="REST_AVG_CUR <= -0.35\ngini = 0.46\nsamples = 28\nvalue = [10, 18]\nclass = 1", fillcolor="#a7d3f3"] ;
651 -> 652 ;
653 [label="gini = 0.0\nsamples = 1\nvalue = [1, 0]\nclass = 0", fillcolor="#e58139"] ;
652 -> 653 ;
654 [label="REST_AVG_CUR <= -0.35\ngini = 0.44\nsamples = 27\nvalue = [9, 18]\nclass = 1", fillcolor="#9ccef2"] ;
652 -> 654 ;
655 [label="REST_AVG_CUR <= -0.35\ngini = 0.47\nsamples = 24\nvalue = [9, 15]\nclass = 1", fillcolor="#b0d8f5"] ;
654 -> 655 ;
656 [label="CLNT_SETUP_TENOR <= -0.06\ngini = 0.43\nsamples = 22\nvalue = [7.0, 15.0]\nclass = 1", fillcolor="#95cbf1"] ;
655 -> 656 ;
657 [label="REST_AVG_CUR <= -0.35\ngini = 0.35\nsamples = 18\nvalue = [4, 14]\nclass = 1", fillcolor="#72b9ec"] ;
656 -> 657 ;
658 [label="AGE <= -0.49\ngini = 0.29\nsamples = 17\nvalue = [3, 14]\nclass = 1", fillcolor="#63b2eb"] ;
657 -> 658 ;
659 [label="CLNT_SETUP_TENOR <= -1.32\ngini = 0.22\nsamples = 16\nvalue = [2, 14]\nclass = 1", fillcolor="#55abe9"] ;
658 -> 659 ;
660 [label="REST_AVG_CUR <= -0.35\ngini = 0.48\nsamples = 5\nvalue = [2, 3]\nclass = 1", fillcolor="#bddef6"] ;
659 -> 660 ;
661 [label="CLNT_SETUP_TENOR <= -1.35\ngini = 0.44\nsamples = 3\nvalue = [2, 1]\nclass = 0", fillcolor="#f2c09c"] ;
660 -> 661 ;
662 [label="gini = 0.0\nsamples = 1\nvalue = [0, 1]\nclass = 1", fillcolor="#399de5"] ;
661 -> 662 ;
663 [label="gini = 0.0\nsamples = 2\nvalue = [2, 0]\nclass = 0", fillcolor="#e58139"] ;
661 -> 663 ;
664 [label="gini = 0.0\nsamples = 2\nvalue = [0, 2]\nclass = 1", fillcolor="#399de5"] ;
660 -> 664 ;
665 [label="gini = 0.0\nsamples = 11\nvalue = [0, 11]\nclass = 1", fillcolor="#399de5"] ;
659 -> 665 ;
666 [label="gini = 0.0\nsamples = 1\nvalue = [1, 0]\nclass = 0", fillcolor="#e58139"] ;
658 -> 666 ;
667 [label="gini = 0.0\nsamples = 1\nvalue = [1, 0]\nclass = 0", fillcolor="#e58139"] ;
657 -> 667 ;
668 [label="AGE <= -0.62\ngini = 0.38\nsamples = 4\nvalue = [3, 1]\nclass = 0", fillcolor="#eeab7b"] ;
656 -> 668 ;
669 [label="gini = 0.0\nsamples = 3\nvalue = [3, 0]\nclass = 0", fillcolor="#e58139"] ;
668 -> 669 ;
670 [label="gini = 0.0\nsamples = 1\nvalue = [0, 1]\nclass = 1", fillcolor="#399de5"] ;
668 -> 670 ;
671 [label="gini = 0.0\nsamples = 2\nvalue = [2, 0]\nclass = 0", fillcolor="#e58139"] ;
655 -> 671 ;
672 [label="gini = 0.0\nsamples = 3\nvalue = [0, 3]\nclass = 1", fillcolor="#399de5"] ;
654 -> 672 ;
673 [label="gini = 0.0\nsamples = 2\nvalue = [2, 0]\nclass = 0", fillcolor="#e58139"] ;
651 -> 673 ;
674 [label="REST_AVG_CUR <= -0.35\ngini = 0.26\nsamples = 13\nvalue = [2, 11]\nclass = 1", fillcolor="#5dafea"] ;
650 -> 674 ;
675 [label="REST_AVG_CUR <= -0.35\ngini = 0.48\nsamples = 5\nvalue = [2, 3]\nclass = 1", fillcolor="#bddef6"] ;
674 -> 675 ;
676 [label="gini = 0.0\nsamples = 2\nvalue = [0, 2]\nclass = 1", fillcolor="#399de5"] ;
675 -> 676 ;
677 [label="REST_AVG_CUR <= -0.35\ngini = 0.44\nsamples = 3\nvalue = [2, 1]\nclass = 0", fillcolor="#f2c09c"] ;
675 -> 677 ;
678 [label="gini = 0.0\nsamples = 1\nvalue = [1, 0]\nclass = 0", fillcolor="#e58139"] ;
677 -> 678 ;
679 [label="REST_AVG_CUR <= -0.35\ngini = 0.5\nsamples = 2\nvalue = [1, 1]\nclass = 0", fillcolor="#ffffff"] ;
677 -> 679 ;
680 [label="gini = 0.0\nsamples = 1\nvalue = [0, 1]\nclass = 1", fillcolor="#399de5"] ;
679 -> 680 ;
681 [label="gini = 0.0\nsamples = 1\nvalue = [1, 0]\nclass = 0", fillcolor="#e58139"] ;
679 -> 681 ;
682 [label="gini = 0.0\nsamples = 8\nvalue = [0, 8]\nclass = 1", fillcolor="#399de5"] ;
674 -> 682 ;
683 [label="gini = 0.0\nsamples = 2\nvalue = [2, 0]\nclass = 0", fillcolor="#e58139"] ;
649 -> 683 ;
684 [label="CLNT_SETUP_TENOR <= -1.3\ngini = 0.13\nsamples = 115\nvalue = [8, 107]\nclass = 1", fillcolor="#48a4e7"] ;
572 -> 684 ;
685 [label="CLNT_SETUP_TENOR <= -1.3\ngini = 0.29\nsamples = 28\nvalue = [5, 23]\nclass = 1", fillcolor="#64b2eb"] ;
684 -> 685 ;
686 [label="REST_AVG_CUR <= -0.35\ngini = 0.25\nsamples = 27\nvalue = [4, 23]\nclass = 1", fillcolor="#5baeea"] ;
685 -> 686 ;
687 [label="REST_AVG_CUR <= -0.35\ngini = 0.11\nsamples = 17\nvalue = [1, 16]\nclass = 1", fillcolor="#45a3e7"] ;
686 -> 687 ;
688 [label="REST_AVG_CUR <= -0.35\ngini = 0.32\nsamples = 5\nvalue = [1, 4]\nclass = 1", fillcolor="#6ab6ec"] ;
687 -> 688 ;
689 [label="gini = 0.0\nsamples = 4\nvalue = [0, 4]\nclass = 1", fillcolor="#399de5"] ;
688 -> 689 ;
690 [label="gini = 0.0\nsamples = 1\nvalue = [1, 0]\nclass = 0", fillcolor="#e58139"] ;
688 -> 690 ;
691 [label="gini = 0.0\nsamples = 12\nvalue = [0, 12]\nclass = 1", fillcolor="#399de5"] ;
687 -> 691 ;
692 [label="REST_AVG_CUR <= -0.35\ngini = 0.42\nsamples = 10\nvalue = [3, 7]\nclass = 1", fillcolor="#8ec7f0"] ;
686 -> 692 ;
693 [label="AGE <= 0.39\ngini = 0.5\nsamples = 6\nvalue = [3, 3]\nclass = 0", fillcolor="#ffffff"] ;
692 -> 693 ;
694 [label="REST_AVG_CUR <= -0.35\ngini = 0.38\nsamples = 4\nvalue = [1, 3]\nclass = 1", fillcolor="#7bbeee"] ;
693 -> 694 ;
695 [label="gini = 0.0\nsamples = 1\nvalue = [1, 0]\nclass = 0", fillcolor="#e58139"] ;
694 -> 695 ;
696 [label="gini = 0.0\nsamples = 3\nvalue = [0, 3]\nclass = 1", fillcolor="#399de5"] ;
694 -> 696 ;
697 [label="gini = 0.0\nsamples = 2\nvalue = [2, 0]\nclass = 0", fillcolor="#e58139"] ;
693 -> 697 ;
698 [label="gini = 0.0\nsamples = 4\nvalue = [0, 4]\nclass = 1", fillcolor="#399de5"] ;
692 -> 698 ;
699 [label="gini = 0.0\nsamples = 1\nvalue = [1, 0]\nclass = 0", fillcolor="#e58139"] ;
685 -> 699 ;
700 [label="REST_DYNAMIC_PAYM_3M <= 3.27\ngini = 0.07\nsamples = 87\nvalue = [3, 84]\nclass = 1", fillcolor="#40a0e6"] ;
684 -> 700 ;
701 [label="AGE <= 1.44\ngini = 0.05\nsamples = 84\nvalue = [2, 82]\nclass = 1", fillcolor="#3e9fe6"] ;
700 -> 701 ;
702 [label="gini = 0.0\nsamples = 67\nvalue = [0, 67]\nclass = 1", fillcolor="#399de5"] ;
701 -> 702 ;
703 [label="AGE <= 1.57\ngini = 0.21\nsamples = 17\nvalue = [2, 15]\nclass = 1", fillcolor="#53aae8"] ;
701 -> 703 ;
704 [label="CLNT_SETUP_TENOR <= -0.51\ngini = 0.44\nsamples = 6\nvalue = [2, 4]\nclass = 1", fillcolor="#9ccef2"] ;
703 -> 704 ;
705 [label="gini = 0.0\nsamples = 3\nvalue = [0, 3]\nclass = 1", fillcolor="#399de5"] ;
704 -> 705 ;
706 [label="CLNT_SETUP_TENOR <= 1.14\ngini = 0.44\nsamples = 3\nvalue = [2, 1]\nclass = 0", fillcolor="#f2c09c"] ;
704 -> 706 ;
707 [label="gini = 0.0\nsamples = 2\nvalue = [2, 0]\nclass = 0", fillcolor="#e58139"] ;
706 -> 707 ;
708 [label="gini = 0.0\nsamples = 1\nvalue = [0, 1]\nclass = 1", fillcolor="#399de5"] ;
706 -> 708 ;
709 [label="gini = 0.0\nsamples = 11\nvalue = [0, 11]\nclass = 1", fillcolor="#399de5"] ;
703 -> 709 ;
710 [label="REST_DYNAMIC_PAYM_3M <= 4.2\ngini = 0.44\nsamples = 3\nvalue = [1, 2]\nclass = 1", fillcolor="#9ccef2"] ;
700 -> 710 ;
711 [label="gini = 0.0\nsamples = 1\nvalue = [1, 0]\nclass = 0", fillcolor="#e58139"] ;
710 -> 711 ;
712 [label="gini = 0.0\nsamples = 2\nvalue = [0, 2]\nclass = 1", fillcolor="#399de5"] ;
710 -> 712 ;
713 [label="REST_AVG_PAYM <= -0.13\ngini = 0.48\nsamples = 22\nvalue = [9, 13]\nclass = 1", fillcolor="#c2e1f7"] ;
11 -> 713 ;
714 [label="gini = 0.0\nsamples = 2\nvalue = [2, 0]\nclass = 0", fillcolor="#e58139"] ;
713 -> 714 ;
715 [label="REST_AVG_PAYM <= -0.13\ngini = 0.45\nsamples = 20\nvalue = [7, 13]\nclass = 1", fillcolor="#a4d2f3"] ;
713 -> 715 ;
716 [label="gini = 0.0\nsamples = 5\nvalue = [0, 5]\nclass = 1", fillcolor="#399de5"] ;
715 -> 716 ;
717 [label="REST_AVG_PAYM <= -0.13\ngini = 0.5\nsamples = 15\nvalue = [7, 8]\nclass = 1", fillcolor="#e6f3fc"] ;
715 -> 717 ;
718 [label="REST_DYNAMIC_PAYM_3M <= 1.65\ngini = 0.32\nsamples = 5\nvalue = [4, 1]\nclass = 0", fillcolor="#eca06a"] ;
717 -> 718 ;
719 [label="gini = 0.0\nsamples = 1\nvalue = [0, 1]\nclass = 1", fillcolor="#399de5"] ;
718 -> 719 ;
720 [label="gini = 0.0\nsamples = 4\nvalue = [4, 0]\nclass = 0", fillcolor="#e58139"] ;
718 -> 720 ;
721 [label="REST_DYNAMIC_PAYM_3M <= 2.32\ngini = 0.42\nsamples = 10\nvalue = [3, 7]\nclass = 1", fillcolor="#8ec7f0"] ;
717 -> 721 ;
722 [label="gini = 0.0\nsamples = 5\nvalue = [0, 5]\nclass = 1", fillcolor="#399de5"] ;
721 -> 722 ;
723 [label="AGE <= -0.62\ngini = 0.48\nsamples = 5\nvalue = [3, 2]\nclass = 0", fillcolor="#f6d5bd"] ;
721 -> 723 ;
724 [label="gini = 0.0\nsamples = 2\nvalue = [2, 0]\nclass = 0", fillcolor="#e58139"] ;
723 -> 724 ;
725 [label="CNT_TRAN_SUP_TENDENCY3M <= -0.49\ngini = 0.44\nsamples = 3\nvalue = [1, 2]\nclass = 1", fillcolor="#9ccef2"] ;
723 -> 725 ;
726 [label="gini = 0.0\nsamples = 1\nvalue = [1, 0]\nclass = 0", fillcolor="#e58139"] ;
725 -> 726 ;
727 [label="gini = 0.0\nsamples = 2\nvalue = [0, 2]\nclass = 1", fillcolor="#399de5"] ;
725 -> 727 ;
728 [label="CLNT_SETUP_TENOR <= -0.05\ngini = 0.09\nsamples = 128\nvalue = [6, 122]\nclass = 1", fillcolor="#43a2e6"] ;
10 -> 728 ;
729 [label="CLNT_SETUP_TENOR <= -0.09\ngini = 0.14\nsamples = 79\nvalue = [6, 73]\nclass = 1", fillcolor="#49a5e7"] ;
728 -> 729 ;
730 [label="AGE <= 1.75\ngini = 0.12\nsamples = 78\nvalue = [5, 73]\nclass = 1", fillcolor="#47a4e7"] ;
729 -> 730 ;
731 [label="CR_PROD_CNT_IL <= 0.91\ngini = 0.1\nsamples = 76\nvalue = [4, 72]\nclass = 1", fillcolor="#44a2e6"] ;
730 -> 731 ;
732 [label="CLNT_SETUP_TENOR <= -0.72\ngini = 0.08\nsamples = 74\nvalue = [3, 71]\nclass = 1", fillcolor="#41a1e6"] ;
731 -> 732 ;
733 [label="gini = 0.0\nsamples = 41\nvalue = [0, 41]\nclass = 1", fillcolor="#399de5"] ;
732 -> 733 ;
734 [label="CLNT_SETUP_TENOR <= -0.71\ngini = 0.17\nsamples = 33\nvalue = [3, 30]\nclass = 1", fillcolor="#4da7e8"] ;
732 -> 734 ;
735 [label="gini = 0.0\nsamples = 1\nvalue = [1, 0]\nclass = 0", fillcolor="#e58139"] ;
734 -> 735 ;
736 [label="REST_AVG_PAYM <= -0.13\ngini = 0.12\nsamples = 32\nvalue = [2, 30]\nclass = 1", fillcolor="#46a4e7"] ;
734 -> 736 ;
737 [label="CLNT_SETUP_TENOR <= -0.24\ngini = 0.06\nsamples = 31\nvalue = [1, 30]\nclass = 1", fillcolor="#40a0e6"] ;
736 -> 737 ;
738 [label="gini = 0.0\nsamples = 26\nvalue = [0, 26]\nclass = 1", fillcolor="#399de5"] ;
737 -> 738 ;
739 [label="CLNT_SETUP_TENOR <= -0.22\ngini = 0.32\nsamples = 5\nvalue = [1, 4]\nclass = 1", fillcolor="#6ab6ec"] ;
737 -> 739 ;
740 [label="gini = 0.0\nsamples = 1\nvalue = [1, 0]\nclass = 0", fillcolor="#e58139"] ;
739 -> 740 ;
741 [label="gini = 0.0\nsamples = 4\nvalue = [0, 4]\nclass = 1", fillcolor="#399de5"] ;
739 -> 741 ;
742 [label="gini = 0.0\nsamples = 1\nvalue = [1, 0]\nclass = 0", fillcolor="#e58139"] ;
736 -> 742 ;
743 [label="AGE <= -0.76\ngini = 0.5\nsamples = 2\nvalue = [1, 1]\nclass = 0", fillcolor="#ffffff"] ;
731 -> 743 ;
744 [label="gini = 0.0\nsamples = 1\nvalue = [0, 1]\nclass = 1", fillcolor="#399de5"] ;
743 -> 744 ;
745 [label="gini = 0.0\nsamples = 1\nvalue = [1, 0]\nclass = 0", fillcolor="#e58139"] ;
743 -> 745 ;
746 [label="TRANS_COUNT_ATM_PRC <= 0.37\ngini = 0.5\nsamples = 2\nvalue = [1, 1]\nclass = 0", fillcolor="#ffffff"] ;
730 -> 746 ;
747 [label="gini = 0.0\nsamples = 1\nvalue = [0, 1]\nclass = 1", fillcolor="#399de5"] ;
746 -> 747 ;
748 [label="gini = 0.0\nsamples = 1\nvalue = [1, 0]\nclass = 0", fillcolor="#e58139"] ;
746 -> 748 ;
749 [label="gini = 0.0\nsamples = 1\nvalue = [1, 0]\nclass = 0", fillcolor="#e58139"] ;
729 -> 749 ;
750 [label="gini = 0.0\nsamples = 49\nvalue = [0, 49]\nclass = 1", fillcolor="#399de5"] ;
728 -> 750 ;
751 [label="REST_AVG_CUR <= -0.35\ngini = 0.4\nsamples = 154\nvalue = [42, 112]\nclass = 1", fillcolor="#83c2ef"] ;
9 -> 751 ;
752 [label="REST_DYNAMIC_PAYM_3M <= -0.37\ngini = 0.47\nsamples = 94\nvalue = [36, 58]\nclass = 1", fillcolor="#b4daf5"] ;
751 -> 752 ;
753 [label="TURNOVER_DYNAMIC_IL_1M <= 25.06\ngini = 0.25\nsamples = 27\nvalue = [23, 4]\nclass = 0", fillcolor="#ea975b"] ;
752 -> 753 ;
754 [label="AGE <= 1.62\ngini = 0.2\nsamples = 26\nvalue = [23, 3]\nclass = 0", fillcolor="#e89153"] ;
753 -> 754 ;
755 [label="CLNT_SETUP_TENOR <= 0.58\ngini = 0.15\nsamples = 25\nvalue = [23, 2]\nclass = 0", fillcolor="#e78c4a"] ;
754 -> 755 ;
756 [label="CLNT_SETUP_TENOR <= 0.1\ngini = 0.26\nsamples = 13\nvalue = [11, 2]\nclass = 0", fillcolor="#ea985d"] ;
755 -> 756 ;
757 [label="gini = 0.0\nsamples = 10\nvalue = [10, 0]\nclass = 0", fillcolor="#e58139"] ;
756 -> 757 ;
758 [label="CR_PROD_CNT_PIL <= 4.88\ngini = 0.44\nsamples = 3\nvalue = [1, 2]\nclass = 1", fillcolor="#9ccef2"] ;
756 -> 758 ;
759 [label="gini = 0.0\nsamples = 2\nvalue = [0, 2]\nclass = 1", fillcolor="#399de5"] ;
758 -> 759 ;
760 [label="gini = 0.0\nsamples = 1\nvalue = [1, 0]\nclass = 0", fillcolor="#e58139"] ;
758 -> 760 ;
761 [label="gini = 0.0\nsamples = 12\nvalue = [12, 0]\nclass = 0", fillcolor="#e58139"] ;
755 -> 761 ;
762 [label="gini = 0.0\nsamples = 1\nvalue = [0, 1]\nclass = 1", fillcolor="#399de5"] ;
754 -> 762 ;
763 [label="gini = 0.0\nsamples = 1\nvalue = [0, 1]\nclass = 1", fillcolor="#399de5"] ;
753 -> 763 ;
764 [label="CLNT_SETUP_TENOR <= 1.32\ngini = 0.31\nsamples = 67\nvalue = [13, 54]\nclass = 1", fillcolor="#69b5eb"] ;
752 -> 764 ;
765 [label="PACK_103 <= 1.68\ngini = 0.17\nsamples = 43\nvalue = [4, 39]\nclass = 1", fillcolor="#4da7e8"] ;
764 -> 765 ;
766 [label="REST_AVG_PAYM <= -0.13\ngini = 0.13\nsamples = 42\nvalue = [3, 39]\nclass = 1", fillcolor="#48a5e7"] ;
765 -> 766 ;
767 [label="CLNT_SETUP_TENOR <= -0.18\ngini = 0.05\nsamples = 38\nvalue = [1, 37]\nclass = 1", fillcolor="#3ea0e6"] ;
766 -> 767 ;
768 [label="CLNT_SETUP_TENOR <= -0.25\ngini = 0.24\nsamples = 7\nvalue = [1, 6]\nclass = 1", fillcolor="#5aade9"] ;
767 -> 768 ;
769 [label="gini = 0.0\nsamples = 6\nvalue = [0, 6]\nclass = 1", fillcolor="#399de5"] ;
768 -> 769 ;
770 [label="gini = 0.0\nsamples = 1\nvalue = [1, 0]\nclass = 0", fillcolor="#e58139"] ;
768 -> 770 ;
771 [label="gini = 0.0\nsamples = 31\nvalue = [0, 31]\nclass = 1", fillcolor="#399de5"] ;
767 -> 771 ;
772 [label="CLNT_SETUP_TENOR <= 0.38\ngini = 0.5\nsamples = 4\nvalue = [2, 2]\nclass = 0", fillcolor="#ffffff"] ;
766 -> 772 ;
773 [label="gini = 0.0\nsamples = 2\nvalue = [0, 2]\nclass = 1", fillcolor="#399de5"] ;
772 -> 773 ;
774 [label="gini = 0.0\nsamples = 2\nvalue = [2, 0]\nclass = 0", fillcolor="#e58139"] ;
772 -> 774 ;
775 [label="gini = 0.0\nsamples = 1\nvalue = [1, 0]\nclass = 0", fillcolor="#e58139"] ;
765 -> 775 ;
776 [label="CLNT_SETUP_TENOR <= 1.41\ngini = 0.47\nsamples = 24\nvalue = [9, 15]\nclass = 1", fillcolor="#b0d8f5"] ;
764 -> 776 ;
777 [label="gini = 0.0\nsamples = 4\nvalue = [4, 0]\nclass = 0", fillcolor="#e58139"] ;
776 -> 777 ;
778 [label="CR_PROD_CNT_IL <= 0.91\ngini = 0.38\nsamples = 20\nvalue = [5, 15]\nclass = 1", fillcolor="#7bbeee"] ;
776 -> 778 ;
779 [label="REST_AVG_PAYM <= -0.15\ngini = 0.21\nsamples = 17\nvalue = [2, 15]\nclass = 1", fillcolor="#53aae8"] ;
778 -> 779 ;
780 [label="REST_DYNAMIC_IL_1M <= 1.65\ngini = 0.5\nsamples = 2\nvalue = [1, 1]\nclass = 0", fillcolor="#ffffff"] ;
779 -> 780 ;
781 [label="gini = 0.0\nsamples = 1\nvalue = [1, 0]\nclass = 0", fillcolor="#e58139"] ;
780 -> 781 ;
782 [label="gini = 0.0\nsamples = 1\nvalue = [0, 1]\nclass = 1", fillcolor="#399de5"] ;
780 -> 782 ;
783 [label="CLNT_SETUP_TENOR <= 1.82\ngini = 0.12\nsamples = 15\nvalue = [1, 14]\nclass = 1", fillcolor="#47a4e7"] ;
779 -> 783 ;
784 [label="gini = 0.0\nsamples = 12\nvalue = [0, 12]\nclass = 1", fillcolor="#399de5"] ;
783 -> 784 ;
785 [label="REST_DYNAMIC_PAYM_3M <= 3.61\ngini = 0.44\nsamples = 3\nvalue = [1, 2]\nclass = 1", fillcolor="#9ccef2"] ;
783 -> 785 ;
786 [label="gini = 0.0\nsamples = 2\nvalue = [0, 2]\nclass = 1", fillcolor="#399de5"] ;
785 -> 786 ;
787 [label="gini = 0.0\nsamples = 1\nvalue = [1, 0]\nclass = 0", fillcolor="#e58139"] ;
785 -> 787 ;
788 [label="gini = 0.0\nsamples = 3\nvalue = [3, 0]\nclass = 0", fillcolor="#e58139"] ;
778 -> 788 ;
789 [label="CLNT_SETUP_TENOR <= 1.49\ngini = 0.18\nsamples = 60\nvalue = [6, 54]\nclass = 1", fillcolor="#4fa8e8"] ;
751 -> 789 ;
790 [label="REST_DYNAMIC_IL_1M <= 4.49\ngini = 0.1\nsamples = 55\nvalue = [3, 52]\nclass = 1", fillcolor="#44a3e6"] ;
789 -> 790 ;
791 [label="PACK_103 <= 1.68\ngini = 0.07\nsamples = 54\nvalue = [2, 52]\nclass = 1", fillcolor="#41a1e6"] ;
790 -> 791 ;
792 [label="CR_PROD_CNT_PIL <= 4.88\ngini = 0.04\nsamples = 51\nvalue = [1, 50]\nclass = 1", fillcolor="#3d9fe6"] ;
791 -> 792 ;
793 [label="gini = 0.0\nsamples = 46\nvalue = [0, 46]\nclass = 1", fillcolor="#399de5"] ;
792 -> 793 ;
794 [label="REST_DYNAMIC_CUR_1M <= 0.98\ngini = 0.32\nsamples = 5\nvalue = [1, 4]\nclass = 1", fillcolor="#6ab6ec"] ;
792 -> 794 ;
795 [label="gini = 0.0\nsamples = 1\nvalue = [1, 0]\nclass = 0", fillcolor="#e58139"] ;
794 -> 795 ;
796 [label="gini = 0.0\nsamples = 4\nvalue = [0, 4]\nclass = 1", fillcolor="#399de5"] ;
794 -> 796 ;
797 [label="AGE <= -0.23\ngini = 0.44\nsamples = 3\nvalue = [1, 2]\nclass = 1", fillcolor="#9ccef2"] ;
791 -> 797 ;
798 [label="gini = 0.0\nsamples = 1\nvalue = [1, 0]\nclass = 0", fillcolor="#e58139"] ;
797 -> 798 ;
799 [label="gini = 0.0\nsamples = 2\nvalue = [0, 2]\nclass = 1", fillcolor="#399de5"] ;
797 -> 799 ;
800 [label="gini = 0.0\nsamples = 1\nvalue = [1, 0]\nclass = 0", fillcolor="#e58139"] ;
790 -> 800 ;
801 [label="REST_AVG_CUR <= -0.35\ngini = 0.48\nsamples = 5\nvalue = [3, 2]\nclass = 0", fillcolor="#f6d5bd"] ;
789 -> 801 ;
802 [label="gini = 0.0\nsamples = 2\nvalue = [0, 2]\nclass = 1", fillcolor="#399de5"] ;
801 -> 802 ;
803 [label="gini = 0.0\nsamples = 3\nvalue = [3, 0]\nclass = 0", fillcolor="#e58139"] ;
801 -> 803 ;
804 [label="REST_DYNAMIC_CUR_1M <= 1.2\ngini = 0.31\nsamples = 1990\nvalue = [378, 1612]\nclass = 1", fillcolor="#67b4eb"] ;
8 -> 804 ;
805 [label="REST_DYNAMIC_CUR_1M <= -0.09\ngini = 0.26\nsamples = 1290\nvalue = [198.0, 1092.0]\nclass = 1", fillcolor="#5dafea"] ;
804 -> 805 ;
806 [label="REST_DYNAMIC_CUR_1M <= -0.42\ngini = 0.2\nsamples = 439\nvalue = [50, 389]\nclass = 1", fillcolor="#52aae8"] ;
805 -> 806 ;
807 [label="REST_AVG_CUR <= -0.34\ngini = 0.49\nsamples = 12\nvalue = [5, 7]\nclass = 1", fillcolor="#c6e3f8"] ;
806 -> 807 ;
808 [label="REST_AVG_CUR <= -0.34\ngini = 0.28\nsamples = 6\nvalue = [1, 5]\nclass = 1", fillcolor="#61b1ea"] ;
807 -> 808 ;
809 [label="gini = 0.0\nsamples = 1\nvalue = [1, 0]\nclass = 0", fillcolor="#e58139"] ;
808 -> 809 ;
810 [label="gini = 0.0\nsamples = 5\nvalue = [0, 5]\nclass = 1", fillcolor="#399de5"] ;
808 -> 810 ;
811 [label="REST_DYNAMIC_CUR_1M <= -0.43\ngini = 0.44\nsamples = 6\nvalue = [4, 2]\nclass = 0", fillcolor="#f2c09c"] ;
807 -> 811 ;
812 [label="gini = 0.0\nsamples = 3\nvalue = [3, 0]\nclass = 0", fillcolor="#e58139"] ;
811 -> 812 ;
813 [label="REST_DYNAMIC_CUR_1M <= -0.42\ngini = 0.44\nsamples = 3\nvalue = [1, 2]\nclass = 1", fillcolor="#9ccef2"] ;
811 -> 813 ;
814 [label="gini = 0.0\nsamples = 2\nvalue = [0, 2]\nclass = 1", fillcolor="#399de5"] ;
813 -> 814 ;
815 [label="gini = 0.0\nsamples = 1\nvalue = [1, 0]\nclass = 0", fillcolor="#e58139"] ;
813 -> 815 ;
816 [label="CLNT_SETUP_TENOR <= 2.66\ngini = 0.19\nsamples = 427\nvalue = [45, 382]\nclass = 1", fillcolor="#50a9e8"] ;
806 -> 816 ;
817 [label="REST_DYNAMIC_CC_1M <= 1.07\ngini = 0.19\nsamples = 426\nvalue = [44, 382]\nclass = 1", fillcolor="#50a8e8"] ;
816 -> 817 ;
818 [label="REST_DYNAMIC_IL_1M <= 0.02\ngini = 0.18\nsamples = 425\nvalue = [43, 382]\nclass = 1", fillcolor="#4fa8e8"] ;
817 -> 818 ;
819 [label="REST_AVG_CUR <= -0.34\ngini = 0.18\nsamples = 420\nvalue = [41, 379]\nclass = 1", fillcolor="#4ea8e8"] ;
818 -> 819 ;
820 [label="REST_DYNAMIC_CC_1M <= 0.45\ngini = 0.5\nsamples = 2\nvalue = [1, 1]\nclass = 0", fillcolor="#ffffff"] ;
819 -> 820 ;
821 [label="gini = 0.0\nsamples = 1\nvalue = [1, 0]\nclass = 0", fillcolor="#e58139"] ;
820 -> 821 ;
822 [label="gini = 0.0\nsamples = 1\nvalue = [0, 1]\nclass = 1", fillcolor="#399de5"] ;
820 -> 822 ;
823 [label="REST_AVG_CUR <= -0.34\ngini = 0.17\nsamples = 418\nvalue = [40, 378]\nclass = 1", fillcolor="#4ea7e8"] ;
819 -> 823 ;
824 [label="REST_AVG_CUR <= -0.34\ngini = 0.18\nsamples = 390\nvalue = [40, 350]\nclass = 1", fillcolor="#50a8e8"] ;
823 -> 824 ;
825 [label="CLNT_SETUP_TENOR <= -1.32\ngini = 0.18\nsamples = 389\nvalue = [39, 350]\nclass = 1", fillcolor="#4fa8e8"] ;
824 -> 825 ;
826 [label="REST_AVG_CUR <= -0.34\ngini = 0.5\nsamples = 2\nvalue = [1, 1]\nclass = 0", fillcolor="#ffffff"] ;
825 -> 826 ;
827 [label="gini = 0.0\nsamples = 1\nvalue = [1, 0]\nclass = 0", fillcolor="#e58139"] ;
826 -> 827 ;
828 [label="gini = 0.0\nsamples = 1\nvalue = [0, 1]\nclass = 1", fillcolor="#399de5"] ;
826 -> 828 ;
829 [label="REST_DYNAMIC_CUR_1M <= -0.12\ngini = 0.18\nsamples = 387\nvalue = [38, 349]\nclass = 1", fillcolor="#4fa8e8"] ;
825 -> 829 ;
830 [label="REST_DYNAMIC_CUR_1M <= -0.12\ngini = 0.19\nsamples = 344\nvalue = [37, 307]\nclass = 1", fillcolor="#51a9e8"] ;
829 -> 830 ;
831 [label="CLNT_SETUP_TENOR <= 1.34\ngini = 0.18\nsamples = 340\nvalue = [34, 306]\nclass = 1", fillcolor="#4fa8e8"] ;
830 -> 831 ;
832 [label="CLNT_SETUP_TENOR <= 1.32\ngini = 0.19\nsamples = 319\nvalue = [34, 285]\nclass = 1", fillcolor="#51a9e8"] ;
831 -> 832 ;
833 [label="REST_AVG_CUR <= -0.34\ngini = 0.19\nsamples = 318\nvalue = [33, 285]\nclass = 1", fillcolor="#50a8e8"] ;
832 -> 833 ;
834 [label="REST_AVG_CUR <= -0.34\ngini = 0.16\nsamples = 247\nvalue = [22, 225]\nclass = 1", fillcolor="#4ca7e8"] ;
833 -> 834 ;
835 [label="REST_AVG_CUR <= -0.34\ngini = 0.18\nsamples = 221\nvalue = [22, 199]\nclass = 1", fillcolor="#4fa8e8"] ;
834 -> 835 ;
836 [label="CLNT_SETUP_TENOR <= 0.76\ngini = 0.17\nsamples = 220\nvalue = [21, 199]\nclass = 1", fillcolor="#4ea7e8"] ;
835 -> 836 ;
837 [label="CLNT_SETUP_TENOR <= 0.74\ngini = 0.19\nsamples = 196\nvalue = [21, 175]\nclass = 1", fillcolor="#51a9e8"] ;
836 -> 837 ;
838 [label="CLNT_SETUP_TENOR <= 0.32\ngini = 0.18\nsamples = 195\nvalue = [20, 175]\nclass = 1", fillcolor="#50a8e8"] ;
837 -> 838 ;
839 [label="PACK_107 <= 1.57\ngini = 0.15\nsamples = 168\nvalue = [14, 154]\nclass = 1", fillcolor="#4ba6e7"] ;
838 -> 839 ;
840 [label="REST_DYNAMIC_CUR_1M <= -0.13\ngini = 0.1\nsamples = 127\nvalue = [7, 120]\nclass = 1", fillcolor="#45a3e7"] ;
839 -> 840 ;
841 [label="REST_DYNAMIC_CUR_1M <= -0.29\ngini = 0.08\nsamples = 120\nvalue = [5, 115]\nclass = 1", fillcolor="#42a1e6"] ;
840 -> 841 ;
842 [label="CLNT_SETUP_TENOR <= -1.19\ngini = 0.21\nsamples = 33\nvalue = [4, 29]\nclass = 1", fillcolor="#54abe9"] ;
841 -> 842 ;
843 [label="gini = 0.0\nsamples = 1\nvalue = [1, 0]\nclass = 0", fillcolor="#e58139"] ;
842 -> 843 ;
844 [label="REST_DYNAMIC_CUR_1M <= -0.29\ngini = 0.17\nsamples = 32\nvalue = [3, 29]\nclass = 1", fillcolor="#4da7e8"] ;
842 -> 844 ;
845 [label="CR_PROD_CNT_IL <= 0.91\ngini = 0.12\nsamples = 31\nvalue = [2, 29]\nclass = 1", fillcolor="#47a4e7"] ;
844 -> 845 ;
846 [label="AGE <= -1.5\ngini = 0.07\nsamples = 29\nvalue = [1, 28]\nclass = 1", fillcolor="#40a0e6"] ;
845 -> 846 ;
847 [label="CNT_TRAN_ATM_TENDENCY3M <= 0.17\ngini = 0.38\nsamples = 4\nvalue = [1, 3]\nclass = 1", fillcolor="#7bbeee"] ;
846 -> 847 ;
848 [label="gini = 0.0\nsamples = 1\nvalue = [1, 0]\nclass = 0", fillcolor="#e58139"] ;
847 -> 848 ;
849 [label="gini = 0.0\nsamples = 3\nvalue = [0, 3]\nclass = 1", fillcolor="#399de5"] ;
847 -> 849 ;
850 [label="gini = 0.0\nsamples = 25\nvalue = [0, 25]\nclass = 1", fillcolor="#399de5"] ;
846 -> 850 ;
851 [label="CNT_TRAN_SUP_TENDENCY3M <= 2.38\ngini = 0.5\nsamples = 2\nvalue = [1, 1]\nclass = 0", fillcolor="#ffffff"] ;
845 -> 851 ;
852 [label="gini = 0.0\nsamples = 1\nvalue = [1, 0]\nclass = 0", fillcolor="#e58139"] ;
851 -> 852 ;
853 [label="gini = 0.0\nsamples = 1\nvalue = [0, 1]\nclass = 1", fillcolor="#399de5"] ;
851 -> 853 ;
854 [label="gini = 0.0\nsamples = 1\nvalue = [1, 0]\nclass = 0", fillcolor="#e58139"] ;
844 -> 854 ;
855 [label="CLNT_SETUP_TENOR <= -1.1\ngini = 0.02\nsamples = 87\nvalue = [1, 86]\nclass = 1", fillcolor="#3b9ee5"] ;
841 -> 855 ;
856 [label="CLNT_SETUP_TENOR <= -1.1\ngini = 0.1\nsamples = 18\nvalue = [1, 17]\nclass = 1", fillcolor="#45a3e7"] ;
855 -> 856 ;
857 [label="gini = 0.0\nsamples = 17\nvalue = [0, 17]\nclass = 1", fillcolor="#399de5"] ;
856 -> 857 ;
858 [label="gini = 0.0\nsamples = 1\nvalue = [1, 0]\nclass = 0", fillcolor="#e58139"] ;
856 -> 858 ;
859 [label="gini = 0.0\nsamples = 69\nvalue = [0, 69]\nclass = 1", fillcolor="#399de5"] ;
855 -> 859 ;
860 [label="REST_DYNAMIC_CUR_1M <= -0.13\ngini = 0.41\nsamples = 7\nvalue = [2, 5]\nclass = 1", fillcolor="#88c4ef"] ;
840 -> 860 ;
861 [label="gini = 0.0\nsamples = 2\nvalue = [2, 0]\nclass = 0", fillcolor="#e58139"] ;
860 -> 861 ;
862 [label="gini = 0.0\nsamples = 5\nvalue = [0, 5]\nclass = 1", fillcolor="#399de5"] ;
860 -> 862 ;
863 [label="AGE <= 1.35\ngini = 0.28\nsamples = 41\nvalue = [7.0, 34.0]\nclass = 1", fillcolor="#62b1ea"] ;
839 -> 863 ;
864 [label="REST_DYNAMIC_CUR_1M <= -0.18\ngini = 0.22\nsamples = 39\nvalue = [5, 34]\nclass = 1", fillcolor="#56abe9"] ;
863 -> 864 ;
865 [label="REST_AVG_CUR <= -0.34\ngini = 0.13\nsamples = 28\nvalue = [2, 26]\nclass = 1", fillcolor="#48a5e7"] ;
864 -> 865 ;
866 [label="AGE <= -1.2\ngini = 0.08\nsamples = 25\nvalue = [1, 24]\nclass = 1", fillcolor="#41a1e6"] ;
865 -> 866 ;
867 [label="CLNT_SETUP_TENOR <= -0.35\ngini = 0.38\nsamples = 4\nvalue = [1, 3]\nclass = 1", fillcolor="#7bbeee"] ;
866 -> 867 ;
868 [label="gini = 0.0\nsamples = 3\nvalue = [0, 3]\nclass = 1", fillcolor="#399de5"] ;
867 -> 868 ;
869 [label="gini = 0.0\nsamples = 1\nvalue = [1, 0]\nclass = 0", fillcolor="#e58139"] ;
867 -> 869 ;
